{"learner":{"attributes":{"best_iteration":"99","best_ntree_limit":"100","scikit_learn":"{\"n_estimators\": 100, \"objective\": null, \"max_depth\": 5, \"max_leaves\": null, \"max_bin\": null, \"grow_policy\": null, \"learning_rate\": 0.5, \"verbosity\": null, \"booster\": \"gbtree\", \"tree_method\": null, \"gamma\": null, \"min_child_weight\": null, \"max_delta_step\": null, \"subsample\": null, \"sampling_method\": null, \"colsample_bytree\": null, \"colsample_bylevel\": null, \"colsample_bynode\": null, \"reg_alpha\": null, \"reg_lambda\": null, \"scale_pos_weight\": null, \"base_score\": null, \"missing\": NaN, \"num_parallel_tree\": null, \"random_state\": null, \"n_jobs\": null, \"monotone_constraints\": null, \"interaction_constraints\": null, \"importance_type\": null, \"gpu_id\": null, \"validate_parameters\": null, \"predictor\": null, \"enable_categorical\": false, \"feature_types\": null, \"max_cat_to_onehot\": null, \"max_cat_threshold\": null, \"eval_metric\": null, \"early_stopping_rounds\": null, \"callbacks\": null, \"_estimator_type\": \"regressor\"}"},"feature_names":["(i,j,k)","(i,j,k-5)","(i,j,k-4)","(i,j,k-3)","(i,j,k-2)","(i,j,k-1)","(i,j,k+1)","(i,j,k+2)","(i,j,k+3)","(i,j,k+4)","(i,j,k+5)","(i,j-1,k)","(i,j+1,k)","(i-1,j,k)","(i+1,j,k)"],"feature_types":["float","float","float","float","float","float","float","float","float","float","float","float","float","float","float"],"gradient_booster":{"model":{"gbtree_model_param":{"num_parallel_tree":"1","num_trees":"100","size_leaf_vector":"0"},"tree_info":[0,0,0,0,0,0,0,0,0,0,0,0,0,0,0,0,0,0,0,0,0,0,0,0,0,0,0,0,0,0,0,0,0,0,0,0,0,0,0,0,0,0,0,0,0,0,0,0,0,0,0,0,0,0,0,0,0,0,0,0,0,0,0,0,0,0,0,0,0,0,0,0,0,0,0,0,0,0,0,0,0,0,0,0,0,0,0,0,0,0,0,0,0,0,0,0,0,0,0,0],"trees":[{"base_weights":[2.044633E1,2.1281816E1,1.9645987E1,1.856177E1,2.3476114E1,2.2732048E1,1.6156307E1,1.7154469E1,2.6588566E1,3.0519861E1,1.704475E1,1.684519E1,2.8716198E1,2.1656021E1,1.3901972E1,1.3874177E1,2.2697958E1,2.2181757E1,2.9267548E1,3.3559845E1,2.7946938E1,3.3559086E1,1.6242733E1,1.615721E1,3.4905354E1,3.1506056E1,2.6159311E1,1.650247E1,2.7270748E1,2.291207E1,1.1346314E1,5.9686036E0,8.603732E0,1.4502946E1,9.85117E0,9.844581E0,1.2452401E1,1.3432827E1,1.7323572E1,1.7916845E1,1.3936583E1,1.1932687E1,1.5286049E1,1.0742333E1,1.8386814E1,1.0679509E1,6.587707E0,6.4082446E0,1.034644E1,1.9810595E1,9.57528E0,1.3735035E1,1.6776201E1,1.1929329E1,1.6357346E1,7.3486705E0,9.602768E0,1.2269841E1,1.5461038E1,1.3916258E1,9.31722E0,7.7986226E0,5.165362E0],"categories":[],"categories_nodes":[],"categories_segments":[],"categories_sizes":[],"default_left":[0,0,0,0,0,0,0,0,0,0,0,0,0,0,0,0,0,0,0,0,0,0,0,0,0,0,0,0,0,0,0,0,0,0,0,0,0,0,0,0,0,0,0,0,0,0,0,0,0,0,0,0,0,0,0,0,0,0,0,0,0,0,0],"id":0,"left_children":[1,3,5,7,9,11,13,15,17,19,21,23,25,27,29,31,33,35,37,39,41,43,45,47,49,51,53,55,57,59,61,-1,-1,-1,-1,-1,-1,-1,-1,-1,-1,-1,-1,-1,-1,-1,-1,-1,-1,-1,-1,-1,-1,-1,-1,-1,-1,-1,-1,-1,-1,-1,-1],"loss_changes":[4.7929344E7,2.0931891E8,3.942697E8,1.768878E8,8.793416E8,6.844334E8,2.130217E8,2.422743E8,2.7576704E7,7.246234E7,1.343895E8,1.2169062E8,6.87273E7,1.4454016E8,2.8061338E8,5.4042624E7,9.359232E7,5.99392E6,1.8770304E7,5.491251E7,5.3762816E7,1.8239648E7,1.5185894E8,1.4295654E8,2.6701536E7,3.805235E7,7.581926E7,1.2708416E7,2.383872E7,5.667712E7,4.098573E7,0E0,0E0,0E0,0E0,0E0,0E0,0E0,0E0,0E0,0E0,0E0,0E0,0E0,0E0,0E0,0E0,0E0,0E0,0E0,0E0,0E0,0E0,0E0,0E0,0E0,0E0,0E0,0E0,0E0,0E0,0E0,0E0],"parents":[2147483647,0,0,1,1,2,2,3,3,4,4,5,5,6,6,7,7,8,8,9,9,10,10,11,11,12,12,13,13,14,14,15,15,16,16,17,17,18,18,19,19,20,20,21,21,22,22,23,23,24,24,25,25,26,26,27,27,28,28,29,29,30,30],"right_children":[2,4,6,8,10,12,14,16,18,20,22,24,26,28,30,32,34,36,38,40,42,44,46,48,50,52,54,56,58,60,62,-1,-1,-1,-1,-1,-1,-1,-1,-1,-1,-1,-1,-1,-1,-1,-1,-1,-1,-1,-1,-1,-1,-1,-1,-1,-1,-1,-1,-1,-1,-1,-1],"split_conditions":[5.798015E-4,6.940826E-4,6.306032E-3,2.2090895E-2,-6.5645254E-3,6.067292E-4,-2.079735E-3,1.625649E-2,-9.36606E-3,-9.0241246E-2,-1.5387259E-2,1.7678548E-2,-5.253154E-6,5.7357736E-3,4.95455E-3,2.6777394E-2,-4.393431E-2,5.309225E-2,6.6599555E-2,-6.388353E-2,-2.7210565E-2,6.6599555E-2,-3.865119E-4,-9.201295E-3,-2.5098145E-2,2.6128272E-2,6.5920115E-2,-1.07405774E-1,7.7013694E-2,2.4034218E-3,2.1366903E-3,5.9686036E0,8.603732E0,1.4502946E1,9.85117E0,9.844581E0,1.2452401E1,1.3432827E1,1.7323572E1,1.7916845E1,1.3936583E1,1.1932687E1,1.5286049E1,1.0742333E1,1.8386814E1,1.0679509E1,6.587707E0,6.4082446E0,1.034644E1,1.9810595E1,9.57528E0,1.3735035E1,1.6776201E1,1.1929329E1,1.6357346E1,7.3486705E0,9.602768E0,1.2269841E1,1.5461038E1,1.3916258E1,9.31722E0,7.7986226E0,5.165362E0],"split_indices":[1,5,5,3,7,7,6,6,8,2,6,6,10,10,3,8,9,4,4,7,10,4,9,9,3,6,3,10,9,8,7,0,0,0,0,0,0,0,0,0,0,0,0,0,0,0,0,0,0,0,0,0,0,0,0,0,0,0,0,0,0,0,0],"split_type":[0,0,0,0,0,0,0,0,0,0,0,0,0,0,0,0,0,0,0,0,0,0,0,0,0,0,0,0,0,0,0,0,0,0,0,0,0,0,0,0,0,0,0,0,0,0,0,0,0,0,0,0,0,0,0,0,0,0,0,0,0,0,0],"sum_hessian":[7.168075E7,3.5070336E7,3.661042E7,1.5659213E7,1.9411122E7,1.9428776E7,1.7181644E7,1.3323302E7,2.335911E6,9.264484E6,1.0146638E7,9.794008E6,9.634768E6,4.995219E6,1.2186425E7,8.370291E6,4.953011E6,8.8316E5,1.452751E6,4.246778E6,5.017706E6,4.69946E5,9.676692E6,9.43461E6,3.59398E5,4.607474E6,5.027294E6,2.604577E6,2.390642E6,2.692804E6,9.493621E6,5.293973E6,3.076318E6,1.5948E6,3.358211E6,4.61095E5,4.22065E5,1.004338E6,4.48413E5,3.033725E6,1.213053E6,1.964045E6,3.053661E6,9.8809E4,3.71137E5,3.626944E6,6.049748E6,5.432984E6,4.001626E6,2.76602E5,8.2796E4,1.550149E6,3.057325E6,3.721288E6,1.306006E6,1.561681E6,1.042896E6,1.367676E6,1.022966E6,1.252305E6,1.440499E6,1.830737E6,7.662884E6],"tree_param":{"num_deleted":"0","num_feature":"15","num_nodes":"63","size_leaf_vector":"0"}},{"base_weights":[1.0223169E1,1.0379109E1,8.044474E0,1.313301E1,1.0257192E1,1.1810886E1,4.627093E0,8.864769E0,1.7085114E1,1.0887309E1,9.74749E0,8.501016E0,1.7768417E1,9.429533E0,4.0320687E0,4.8799767E0,1.2753597E1,2.239474E1,1.4027409E1,8.026182E0,1.4401567E1,1.3489954E1,8.007273E0,6.655862E0,1.0974789E1,1.5428813E1,2.0360508E1,8.772573E0,2.4914675E1,1.3132379E1,3.7036257E0,1.9563165E0,8.4918785E0,9.7355175E0,5.4982123E0,1.247956E1,8.677797E0,9.179811E0,6.068399E0,3.7680342E0,1.0559952E1,5.6148906E0,8.662178E0,5.6036158E0,8.59332E0,6.4862337E0,3.0656428E0,3.125183E0,1.0699849E1,5.973268E0,3.7440174E0,6.197158E0,8.3619375E0,1.0889883E1,7.0360003E0,2.9025497E0,4.9211054E0,1.0624894E1,1.6981245E1,2.240618E0,7.182335E0,1.4040781E0,3.1436715E0],"categories":[],"categories_nodes":[],"categories_segments":[],"categories_sizes":[],"default_left":[0,0,0,0,0,0,0,0,0,0,0,0,0,0,0,0,0,0,0,0,0,0,0,0,0,0,0,0,0,0,0,0,0,0,0,0,0,0,0,0,0,0,0,0,0,0,0,0,0,0,0,0,0,0,0,0,0,0,0,0,0,0,0],"id":1,"left_children":[1,3,5,7,9,11,13,15,17,19,21,23,25,27,29,31,33,35,37,39,41,43,45,47,49,51,53,55,57,59,61,-1,-1,-1,-1,-1,-1,-1,-1,-1,-1,-1,-1,-1,-1,-1,-1,-1,-1,-1,-1,-1,-1,-1,-1,-1,-1,-1,-1,-1,-1,-1,-1],"loss_changes":[2.4352768E7,2.245888E7,6.162557E7,4.783667E7,2.0572672E7,4.4911264E7,7.173124E6,2.1127456E7,2.3905504E7,2.8801664E8,2.3062886E8,6.683072E6,4.932832E6,2.814998E6,6.675752E6,7.884377E6,8.144432E6,6.952864E6,7.652816E6,1.0132883E8,1.1917286E8,9.4848E7,2.2515597E8,5.013704E6,2.119336E6,1.680024E6,3.443856E6,8.42574E5,3.727175E5,8.2936E5,4.987506E6,0E0,0E0,0E0,0E0,0E0,0E0,0E0,0E0,0E0,0E0,0E0,0E0,0E0,0E0,0E0,0E0,0E0,0E0,0E0,0E0,0E0,0E0,0E0,0E0,0E0,0E0,0E0,0E0,0E0,0E0,0E0,0E0],"parents":[2147483647,0,0,1,1,2,2,3,3,4,4,5,5,6,6,7,7,8,8,9,9,10,10,11,11,12,12,13,13,14,14,15,15,16,16,17,17,18,18,19,19,20,20,21,21,22,22,23,23,24,24,25,25,26,26,27,27,28,28,29,29,30,30],"right_children":[2,4,6,8,10,12,14,16,18,20,22,24,26,28,30,32,34,36,38,40,42,44,46,48,50,52,54,56,58,60,62,-1,-1,-1,-1,-1,-1,-1,-1,-1,-1,-1,-1,-1,-1,-1,-1,-1,-1,-1,-1,-1,-1,-1,-1,-1,-1,-1,-1,-1,-1,-1,-1],"split_conditions":[2.8728095E-1,-3.4358987E-1,-4.7176514E-2,2.9187016E-2,-8.0039045E-3,2.9933557E-2,-9.083408E-2,8.419628E-2,-9.872302E-2,1.6688788E-2,-9.561915E-3,-6.460001E-2,5.961388E-2,2.1898758E-1,-8.978426E-2,5.1168013E-2,-2.0541312E-1,3.2253E-1,-8.969148E-2,1.5543167E-2,0E0,5.4777972E-3,-2.9708313E-2,5.5003487E-2,-1.7245968E-1,-1.0323606E-1,1.4684795E-1,-1.7327599E-1,1.6674085E-1,8.040491E-2,2.512812E-1,1.9563165E0,8.4918785E0,9.7355175E0,5.4982123E0,1.247956E1,8.677797E0,9.179811E0,6.068399E0,3.7680342E0,1.0559952E1,5.6148906E0,8.662178E0,5.6036158E0,8.59332E0,6.4862337E0,3.0656428E0,3.125183E0,1.0699849E1,5.973268E0,3.7440174E0,6.197158E0,8.3619375E0,1.0889883E1,7.0360003E0,2.9025497E0,4.9211054E0,1.0624894E1,1.6981245E1,2.240618E0,7.182335E0,1.4040781E0,3.1436715E0],"split_indices":[10,2,6,5,5,4,0,6,7,7,6,3,5,3,7,0,9,5,8,0,2,9,3,5,0,8,1,1,4,0,0,0,0,0,0,0,0,0,0,0,0,0,0,0,0,0,0,0,0,0,0,0,0,0,0,0,0,0,0,0,0,0,0],"split_type":[0,0,0,0,0,0,0,0,0,0,0,0,0,0,0,0,0,0,0,0,0,0,0,0,0,0,0,0,0,0,0,0,0,0,0,0,0,0,0,0,0,0,0,0,0,0,0,0,0,0,0,0,0,0,0,0,0,0,0,0,0,0,0],"sum_hessian":[7.168075E7,6.689291E7,4.787843E6,2.83586E6,6.4057052E7,2.277609E6,2.510234E6,1.363401E6,1.472459E6,2.8644858E7,3.541219E7,1.464158E6,8.13451E5,2.7673E5,2.233504E6,6.73393E5,6.90008E5,5.38084E5,9.34375E5,1.5789702E7,1.2855156E7,1.1239921E7,2.4172272E7,8.38635E5,6.25523E5,4.27552E5,3.85899E5,2.65469E5,1.1261E4,7.7801E4,2.155703E6,6.23559E5,4.9834E4,1.43068E5,5.4694E5,3.56606E5,1.81478E5,2.83878E5,6.50497E5,1.5220001E7,5.69701E5,6.164979E6,6.690177E6,6.948927E6,4.290994E6,6.628513E6,1.754376E7,8.16189E5,2.2446E4,4.89186E5,1.36337E5,1.27893E5,2.99659E5,3.1484E5,7.1059E4,7.0338E4,1.95131E5,8.017E3,3.244E3,9.701E3,6.81E4,1.600872E6,5.54831E5],"tree_param":{"num_deleted":"0","num_feature":"15","num_nodes":"63","size_leaf_vector":"0"}},{"base_weights":[5.111588E0,6.295932E0,4.9573207E0,3.966406E0,8.493962E0,5.0926294E0,2.3065143E0,1.345138E0,5.157848E0,5.6193666E0,9.847855E0,5.660128E0,4.4012265E0,8.882938E0,1.0612677E0,8.6256975E-1,5.2580705E0,4.6279974E0,7.1171746E0,3.5106547E0,6.442264E0,8.44308E0,1.1694472E1,3.542506E0,7.8867207E0,7.3898153E0,2.6056588E0,2.3010898E0,1.6381409E1,5.0715237E0,9.569351E-2,-8.095045E-2,9.838417E-1,2.0342252E0,3.849591E0,1.7369822E0,2.9363031E0,4.2428627E0,2.9902818E0,1.0067985E0,2.3246245E0,2.4288723E0,3.7168264E0,5.9483533E0,4.0317082E0,8.638985E0,5.639171E0,1.3156614E0,3.732599E0,4.960748E0,2.362467E0,1.8191446E0,5.759867E0,2.4452097E0,7.4589443E-1,-1.6644238E0,2.4233997E0,2.8580282E0,8.556573E0,1.3870554E0,8.340058E0,-2.935661E-1,1.3911597E0],"categories":[],"categories_nodes":[],"categories_segments":[],"categories_sizes":[],"default_left":[0,0,0,0,0,0,0,0,0,0,0,0,0,0,0,0,0,0,0,0,0,0,0,0,0,0,0,0,0,0,0,0,0,0,0,0,0,0,0,0,0,0,0,0,0,0,0,0,0,0,0,0,0,0,0,0,0,0,0,0,0,0,0],"id":2,"left_children":[1,3,5,7,9,11,13,15,17,19,21,23,25,27,29,31,33,35,37,39,41,43,45,47,49,51,53,55,57,59,61,-1,-1,-1,-1,-1,-1,-1,-1,-1,-1,-1,-1,-1,-1,-1,-1,-1,-1,-1,-1,-1,-1,-1,-1,-1,-1,-1,-1,-1,-1,-1,-1],"loss_changes":[1.3096192E7,4.229821E7,2.2747136E7,1.2524932E7,1.6541856E7,2.3675648E7,2.522303E7,2.3664158E6,2.86236E6,2.361476E6,7.495392E6,1.5625478E8,1.4596422E8,2.4200692E7,1.0027679E7,1.2630828E6,3.9952375E5,3.117232E6,9.1288E5,6.511305E5,1.53768E6,2.151688E6,2.9004E6,6.071051E7,1.0392749E8,1.5816992E8,4.324283E7,3.7426945E6,1.788752E6,1.3402321E7,3.8288358E6,0E0,0E0,0E0,0E0,0E0,0E0,0E0,0E0,0E0,0E0,0E0,0E0,0E0,0E0,0E0,0E0,0E0,0E0,0E0,0E0,0E0,0E0,0E0,0E0,0E0,0E0,0E0,0E0,0E0,0E0,0E0,0E0],"parents":[2147483647,0,0,1,1,2,2,3,3,4,4,5,5,6,6,7,7,8,8,9,9,10,10,11,11,12,12,13,13,14,14,15,15,16,16,17,17,18,18,19,19,20,20,21,21,22,22,23,23,24,24,25,25,26,26,27,27,28,28,29,29,30,30],"right_children":[2,4,6,8,10,12,14,16,18,20,22,24,26,28,30,32,34,36,38,40,42,44,46,48,50,52,54,56,58,60,62,-1,-1,-1,-1,-1,-1,-1,-1,-1,-1,-1,-1,-1,-1,-1,-1,-1,-1,-1,-1,-1,-1,-1,-1,-1,-1,-1,-1,-1,-1,-1,-1],"split_conditions":[-2.1397372E-1,-1.8757612E-2,2.975359E-1,-9.631634E-2,-1.3148747E-1,2.6777394E-2,-6.376875E-2,-1.0312456E-1,1.5144241E-1,-2.6457655E-1,-7.3044924E-3,2.698884E-2,-2.8504236E-3,9.7082324E-2,-5.1945932E-2,-1.5298891E-1,-5.0502874E-2,-1.5632418E-1,5.798015E-4,1.8622277E-2,-1.1711013E-2,1.3082867E-3,2.2090895E-2,4.3329038E-2,3.3565473E-2,0E0,-1.6337603E-2,-2.0460145E-1,-6.4739084E-1,1.6367607E-1,3.6302584E-1,-8.095045E-2,9.838417E-1,2.0342252E0,3.849591E0,1.7369822E0,2.9363031E0,4.2428627E0,2.9902818E0,1.0067985E0,2.3246245E0,2.4288723E0,3.7168264E0,5.9483533E0,4.0317082E0,8.638985E0,5.639171E0,1.3156614E0,3.732599E0,4.960748E0,2.362467E0,1.8191446E0,5.759867E0,2.4452097E0,7.4589443E-1,-1.6644238E0,2.4233997E0,2.8580282E0,8.556573E0,1.3870554E0,8.340058E0,-2.935661E-1,1.3911597E0],"split_indices":[0,3,2,8,8,8,5,4,7,9,4,0,0,7,0,3,4,3,1,4,4,2,3,5,3,3,4,10,10,8,5,0,0,0,0,0,0,0,0,0,0,0,0,0,0,0,0,0,0,0,0,0,0,0,0,0,0,0,0,0,0,0,0],"split_type":[0,0,0,0,0,0,0,0,0,0,0,0,0,0,0,0,0,0,0,0,0,0,0,0,0,0,0,0,0,0,0,0,0,0,0,0,0,0,0,0,0,0,0,0,0,0,0,0,0,0,0,0,0,0,0,0,0,0,0,0,0,0,0],"sum_hessian":[7.168075E7,8.260782E6,6.3419972E7,4.010432E6,4.25035E6,6.0339964E7,3.08001E6,1.253229E6,2.757203E6,1.360894E6,2.889456E6,3.3139376E7,2.7200586E7,4.90351E5,2.589659E6,1.115642E6,1.37587E5,2.170303E6,5.869E5,3.82002E5,9.78892E5,1.64106E6,1.248396E6,1.6985326E7,1.6154051E7,1.0208798E7,1.6991788E7,2.61137E5,2.29214E5,5.0253E5,2.087129E6,5.78945E5,5.36697E5,9.2508E4,4.5079E4,1.12613E6,1.044173E6,2.66278E5,3.20622E5,1.65025E5,2.16977E5,3.76748E5,6.02144E5,1.62534E5,1.478526E6,8.6585E4,1.161811E6,1.3783602E7,3.201724E6,9.828739E6,6.325312E6,5.349465E6,4.859333E6,5.568901E6,1.1422887E7,8.1312E4,1.79825E5,1.4717E4,2.14497E5,4.19508E5,8.3022E4,1.664169E6,4.2296E5],"tree_param":{"num_deleted":"0","num_feature":"15","num_nodes":"63","size_leaf_vector":"0"}},{"base_weights":[2.5557952E0,2.3629358E0,3.3307328E0,2.1176362E0,3.5602818E0,4.312564E0,1.1504381E0,2.3989786E-1,2.3896134E0,4.7045846E0,-4.0578163E-1,6.421511E0,3.6465106E0,2.8647392E0,-5.34984E-1,2.8824096E0,-1.0319142E0,2.972233E0,1.5168337E0,3.0774975E0,7.644784E0,6.0992746E0,-1.2368934E0,1.0541194E1,4.881105E0,4.0812964E0,1.3701687E0,8.539808E-1,3.330275E0,-2.065166E0,1.8722252E0,-4.3819115E-1,3.1248238E0,6.6648215E-1,-1.193445E0,8.650018E-1,2.7048268E0,1.8279642E0,1.8533361E-1,3.2005098E0,8.88943E-1,5.2094994E0,3.1064932E0,-1.9970282E0,4.4397054E0,2.7714574E-1,-9.978864E-1,4.0875435E0,6.088397E0,2.7758467E0,1.5188266E0,1.8103073E0,2.6004472E0,-9.090511E-2,1.3233594E0,-3.0432353E0,6.14016E-1,8.66746E-1,1.8684816E0,1.2371136E0,-1.2137414E0,1.4956703E0,1.224236E-1],"categories":[],"categories_nodes":[],"categories_segments":[],"categories_sizes":[],"default_left":[0,0,0,0,0,0,0,0,0,0,0,0,0,0,0,0,0,0,0,0,0,0,0,0,0,0,0,0,0,0,0,0,0,0,0,0,0,0,0,0,0,0,0,0,0,0,0,0,0,0,0,0,0,0,0,0,0,0,0,0,0,0,0],"id":3,"left_children":[1,3,5,7,9,11,13,15,17,19,21,23,25,27,29,31,33,35,37,39,41,43,45,47,49,51,53,55,57,59,61,-1,-1,-1,-1,-1,-1,-1,-1,-1,-1,-1,-1,-1,-1,-1,-1,-1,-1,-1,-1,-1,-1,-1,-1,-1,-1,-1,-1,-1,-1,-1,-1],"loss_changes":[1.071296E7,1.6857824E7,3.057816E7,2.4328352E7,4.4291704E7,1.3834704E7,1.2814836E7,2.0255208E7,2.1158672E7,3.6234064E7,1.1814676E7,1.500164E7,7.40816E6,2.058232E6,8.23793E6,2.4784788E7,1.3037596E7,7.555338E7,4.083944E7,2.1060084E7,1.071768E7,6.947113E6,2.6339438E6,2.489704E6,2.127E6,3.241504E6,2.3781975E6,1.0731404E6,1.159432E6,2.2488155E6,1.5829195E6,0E0,0E0,0E0,0E0,0E0,0E0,0E0,0E0,0E0,0E0,0E0,0E0,0E0,0E0,0E0,0E0,0E0,0E0,0E0,0E0,0E0,0E0,0E0,0E0,0E0,0E0,0E0,0E0,0E0,0E0,0E0,0E0],"parents":[2147483647,0,0,1,1,2,2,3,3,4,4,5,5,6,6,7,7,8,8,9,9,10,10,11,11,12,12,13,13,14,14,15,15,16,16,17,17,18,18,19,19,20,20,21,21,22,22,23,23,24,24,25,25,26,26,27,27,28,28,29,29,30,30],"right_children":[2,4,6,8,10,12,14,16,18,20,22,24,26,28,30,32,34,36,38,40,42,44,46,48,50,52,54,56,58,60,62,-1,-1,-1,-1,-1,-1,-1,-1,-1,-1,-1,-1,-1,-1,-1,-1,-1,-1,-1,-1,-1,-1,-1,-1,-1,-1,-1,-1,-1,-1,-1,-1],"split_conditions":[1.3475141E-1,1.15797445E-1,1.089451E-1,-1.6591093E-1,1.920302E-2,-7.076757E-2,1.0241851E-1,-6.170334E-2,-2.0050664E-2,5.7112545E-2,2.2775408E-2,-1.12944424E-1,1.4952166E-1,2.2603996E-1,3.241554E-1,-3.2768033E-2,-1.2151486E-1,7.5201003E-4,-2.9391227E-2,-9.656129E-2,-8.329166E-2,9.720845E-2,3.0875655E-2,-3.4358987E-1,1.4417507E-1,0E0,2.2687608E-1,-6.4739084E-1,-3.2172674E-1,8.763333E-2,2.1338195E-1,-4.3819115E-1,3.1248238E0,6.6648215E-1,-1.193445E0,8.650018E-1,2.7048268E0,1.8279642E0,1.8533361E-1,3.2005098E0,8.88943E-1,5.2094994E0,3.1064932E0,-1.9970282E0,4.4397054E0,2.7714574E-1,-9.978864E-1,4.0875435E0,6.088397E0,2.7758467E0,1.5188266E0,1.8103073E0,2.6004472E0,-9.090511E-2,1.3233594E0,-3.0432353E0,6.14016E-1,8.66746E-1,1.8684816E0,1.2371136E0,-1.2137414E0,1.4956703E0,1.224236E-1],"split_indices":[0,4,3,1,6,4,7,8,5,9,0,8,9,5,0,5,5,6,7,1,1,8,7,2,9,2,0,10,10,4,8,0,0,0,0,0,0,0,0,0,0,0,0,0,0,0,0,0,0,0,0,0,0,0,0,0,0,0,0,0,0,0,0],"split_type":[0,0,0,0,0,0,0,0,0,0,0,0,0,0,0,0,0,0,0,0,0,0,0,0,0,0,0,0,0,0,0,0,0,0,0,0,0,0,0,0,0,0,0,0,0,0,0,0,0,0,0,0,0,0,0,0,0,0,0,0,0,0,0],"sum_hessian":[7.168075E7,5.739644E7,1.4284314E7,4.7637068E7,9.759373E6,9.849074E6,4.43524E6,6.026938E6,4.161013E7,7.574074E6,2.185299E6,2.363965E6,7.485109E6,2.198782E6,2.236458E6,1.958226E6,4.068712E6,2.495293E7,1.66572E7,4.875826E6,2.698248E6,2.47571E5,1.937728E6,6.43357E5,1.720608E6,6.284715E6,1.200394E6,4.13365E5,1.785417E6,1.367307E6,8.69151E5,9.25314E5,1.032912E6,1.482049E6,2.586663E6,1.6528961E7,8.423969E6,5.811386E6,1.0845814E7,1.370645E6,3.505181E6,9.18527E5,1.779721E6,5.3465E4,1.94106E5,5.76653E5,1.361075E6,2.62959E5,3.80398E5,1.261656E6,4.58952E5,4.452603E6,1.832112E6,5.41753E5,6.58641E5,2.1138E4,3.92227E5,3.62426E5,1.422991E6,1.01066E5,1.266241E6,5.14997E5,3.54154E5],"tree_param":{"num_deleted":"0","num_feature":"15","num_nodes":"63","size_leaf_vector":"0"}},{"base_weights":[1.2778984E0,-2.3302805E0,1.3136044E0,-3.875988E0,4.8893834E-3,2.0446694E0,1.1513647E0,-5.29524E0,-4.1405874E-1,8.457241E0,-8.4307516E-1,8.6048627E-1,3.8169863E0,7.974481E-1,1.7726852E0,4.3959696E-2,-6.4001904E0,1.0065634E0,-1.529566E0,4.4330373E0,1.1018072E1,-2.2872162E0,1.3046027E0,-5.95389E-1,2.0248964E0,2.299866E0,5.371259E0,4.3732345E-1,1.9175116E0,2.574187E0,2.9771185E-1,5.567818E-1,-9.818003E-1,4.549354E-1,-3.3758135E0,-1.1227788E-1,1.0801082E0,-1.1040698E0,-7.7782206E-2,3.9991004E0,1.7981555E0,7.1323705E0,3.54382E0,2.3623998E0,-1.4333787E0,2.1573396E0,5.368955E-1,4.3833342E-1,-1.4777635E0,6.01982E-1,1.5384107E0,1.4214592E0,1.4591669E-1,2.1112955E0,3.0808382E0,4.9304414E-1,-7.569028E-1,-5.770307E-1,1.4764634E0,2.2082274E0,9.103382E-1,-4.579057E-1,5.5261606E-1],"categories":[],"categories_nodes":[],"categories_segments":[],"categories_sizes":[],"default_left":[0,0,0,0,0,0,0,0,0,0,0,0,0,0,0,0,0,0,0,0,0,0,0,0,0,0,0,0,0,0,0,0,0,0,0,0,0,0,0,0,0,0,0,0,0,0,0,0,0,0,0,0,0,0,0,0,0,0,0,0,0,0,0],"id":4,"left_children":[1,3,5,7,9,11,13,15,17,19,21,23,25,27,29,31,33,35,37,39,41,43,45,47,49,51,53,55,57,59,61,-1,-1,-1,-1,-1,-1,-1,-1,-1,-1,-1,-1,-1,-1,-1,-1,-1,-1,-1,-1,-1,-1,-1,-1,-1,-1,-1,-1,-1,-1,-1,-1],"loss_changes":[9.23488E6,2.5352728E6,8.418568E6,2.076561E6,2.0050936E6,2.7054756E7,1.2773184E7,1.768396E6,1.9474234E5,2.6280862E5,7.88569E5,1.3100178E7,1.2175064E7,1.4927372E7,2.4920788E7,1.1036881E5,6.38034E5,7.6769695E4,6.417967E4,2.9566219E4,1.9880162E5,6.1780544E5,7.101731E4,1.193071E7,3.707784E6,2.849239E6,2.315552E6,2.9983744E7,2.863513E7,1.895992E7,7.2730475E6,0E0,0E0,0E0,0E0,0E0,0E0,0E0,0E0,0E0,0E0,0E0,0E0,0E0,0E0,0E0,0E0,0E0,0E0,0E0,0E0,0E0,0E0,0E0,0E0,0E0,0E0,0E0,0E0,0E0,0E0,0E0,0E0],"parents":[2147483647,0,0,1,1,2,2,3,3,4,4,5,5,6,6,7,7,8,8,9,9,10,10,11,11,12,12,13,13,14,14,15,15,16,16,17,17,18,18,19,19,20,20,21,21,22,22,23,23,24,24,25,25,26,26,27,27,28,28,29,29,30,30],"right_children":[2,4,6,8,10,12,14,16,18,20,22,24,26,28,30,32,34,36,38,40,42,44,46,48,50,52,54,56,58,60,62,-1,-1,-1,-1,-1,-1,-1,-1,-1,-1,-1,-1,-1,-1,-1,-1,-1,-1,-1,-1,-1,-1,-1,-1,-1,-1,-1,-1,-1,-1,-1,-1],"split_conditions":[-6.4739084E-1,2.1714444E-1,-1.48528E-1,2.7332723E-1,-1.1884046E-1,-7.076757E-2,8.385221E-2,-3.2263407E-1,-7.960402E-1,-4.341744E-1,4.4148242E-1,-9.872302E-2,-1.8126068E-1,8.0848426E-2,8.171959E-2,-5.574906E-1,-2.5049454E-1,4.188846E-1,3.12625E-1,2.534905E-1,-1.8717748E-1,-1.3424979E-1,-1.6396393E-1,-2.513584E-1,-9.770692E-2,6.940826E-4,0E0,1.0114569E-1,-8.071116E-2,1.4113826E-3,2.0273931E-1,5.567818E-1,-9.818003E-1,4.549354E-1,-3.3758135E0,-1.1227788E-1,1.0801082E0,-1.1040698E0,-7.7782206E-2,3.9991004E0,1.7981555E0,7.1323705E0,3.54382E0,2.3623998E0,-1.4333787E0,2.1573396E0,5.368955E-1,4.3833342E-1,-1.4777635E0,6.01982E-1,1.5384107E0,1.4214592E0,1.4591669E-1,2.1112955E0,3.0808382E0,4.9304414E-1,-7.569028E-1,-5.770307E-1,1.4764634E0,2.2082274E0,9.103382E-1,-4.579057E-1,5.5261606E-1],"split_indices":[10,6,0,5,5,4,0,0,8,3,0,7,7,4,8,0,4,5,0,7,5,3,4,0,3,5,4,10,10,4,6,0,0,0,0,0,0,0,0,0,0,0,0,0,0,0,0,0,0,0,0,0,0,0,0,0,0,0,0,0,0,0,0],"split_type":[0,0,0,0,0,0,0,0,0,0,0,0,0,0,0,0,0,0,0,0,0,0,0,0,0,0,0,0,0,0,0,0,0,0,0,0,0,0,0,0,0,0,0,0,0,0,0,0,0,0,0,0,0,0,0,0,0,0,0,0,0,0,0],"sum_hessian":[7.168075E7,7.0239E5,7.097837E7,4.22636E5,2.79754E5,1.2890904E7,5.808746E7,2.9975E5,1.22886E5,2.5506E4,2.54248E5,7.727641E6,5.163263E6,3.700734E7,2.1080122E7,5.1397E4,2.48353E5,5.4051E4,6.8835E4,9.92E3,1.5586E4,1.52024E5,1.02224E5,3.434032E6,4.293609E6,2.612861E6,2.550402E6,2.8003584E7,9.003756E6,1.3658228E7,7.421894E6,3.3532E4,1.7865E4,1.1392E4,2.36961E5,2.6148E4,2.7903E4,4.6078E4,2.2757E4,1.884E3,8.036E3,8.534E3,7.052E3,1.1605E4,1.40419E5,7.279E3,9.4945E4,2.114922E6,1.31911E6,2.411586E6,1.882023E6,2.056658E6,5.56203E5,1.039607E6,1.510795E6,2.185637E7,6.147213E6,2.269942E6,6.733814E6,3.964751E6,9.693477E6,2.965463E6,4.456431E6],"tree_param":{"num_deleted":"0","num_feature":"15","num_nodes":"63","size_leaf_vector":"0"}},{"base_weights":[6.3894963E-1,-2.028072E-1,7.3201674E-1,3.514173E0,-1.4498235E0,2.7463022E-1,1.0278996E0,-1.2265041E0,5.6666937E0,-2.7749224E0,2.0845094E-1,-7.432685E-1,1.3544863E0,2.279612E0,1.964698E-1,1.6582005E-1,-2.9853663E0,7.0186186E0,3.1131017E0,-3.809168E0,-4.3568325E-1,6.1910357E0,-1.4629063E-1,2.9555234E-1,-1.823093E0,7.1455073E0,4.1125995E-1,5.4713446E-1,3.218682E0,9.505007E-1,-4.2489207E-1,-6.4483625E-1,1.0569395E0,1.0405124E0,-1.805457E0,1.8431437E0,4.0402775E0,8.138743E-1,1.9656624E0,-2.9484499E-1,-2.5918398E0,9.844259E-2,-7.172961E-1,4.513368E0,-2.4421106E-1,1.9894147E-1,-1.0315275E0,-3.282414E-1,4.4620526E-1,-1.1030287E0,2.687672E0,4.397132E0,1.6452496E0,9.040452E-1,-6.2574315E-1,4.7749716E-1,-8.482074E-1,1.0951171E0,2.200511E0,5.490744E-2,9.544423E-1,-6.952523E-1,2.2423986E-1],"categories":[],"categories_nodes":[],"categories_segments":[],"categories_sizes":[],"default_left":[0,0,0,0,0,0,0,0,0,0,0,0,0,0,0,0,0,0,0,0,0,0,0,0,0,0,0,0,0,0,0,0,0,0,0,0,0,0,0,0,0,0,0,0,0,0,0,0,0,0,0,0,0,0,0,0,0,0,0,0,0,0,0],"id":5,"left_children":[1,3,5,7,9,11,13,15,17,19,21,23,25,27,29,31,33,35,37,39,41,43,45,47,49,51,53,55,57,59,61,-1,-1,-1,-1,-1,-1,-1,-1,-1,-1,-1,-1,-1,-1,-1,-1,-1,-1,-1,-1,-1,-1,-1,-1,-1,-1,-1,-1,-1,-1,-1,-1],"loss_changes":[5.61546E6,3.3077396E7,8.734992E6,1.8293524E7,1.174174E7,2.7867596E7,4.078709E7,1.3709105E6,4.256288E6,7.185792E6,5.0369725E6,1.4639762E7,6.719701E7,2.544864E7,1.1033464E7,8.8595E5,7.8391025E5,2.85262E6,5.18682E5,9.113938E6,5.753811E5,2.516384E6,2.3369955E6,3.7797172E6,1.7640848E7,1.0951816E7,2.4570538E7,5.031309E6,1.233468E7,8.571745E6,1.0887862E7,0E0,0E0,0E0,0E0,0E0,0E0,0E0,0E0,0E0,0E0,0E0,0E0,0E0,0E0,0E0,0E0,0E0,0E0,0E0,0E0,0E0,0E0,0E0,0E0,0E0,0E0,0E0,0E0,0E0,0E0,0E0,0E0],"parents":[2147483647,0,0,1,1,2,2,3,3,4,4,5,5,6,6,7,7,8,8,9,9,10,10,11,11,12,12,13,13,14,14,15,15,16,16,17,17,18,18,19,19,20,20,21,21,22,22,23,23,24,24,25,25,26,26,27,27,28,28,29,29,30,30],"right_children":[2,4,6,8,10,12,14,16,18,20,22,24,26,28,30,32,34,36,38,40,42,44,46,48,50,52,54,56,58,60,62,-1,-1,-1,-1,-1,-1,-1,-1,-1,-1,-1,-1,-1,-1,-1,-1,-1,-1,-1,-1,-1,-1,-1,-1,-1,-1,-1,-1,-1,-1,-1,-1],"split_conditions":[-2.3411126E-1,-1.2630187E-1,-2.9708313E-2,-2.4497833E-2,7.454211E-2,0E0,-2.2353452E-2,-2.8584543E-1,1.3475141E-1,1.2060002E-1,-4.9415678E-2,-1.646372E-1,-8.130984E-2,-6.170334E-2,6.1244532E-2,-2.200435E-1,-3.3196944E-1,-3.4594634E-1,-2.4252109E-1,-1.3049215E-1,-1.8514393E-1,3.0628717E-1,1.8969168E-1,-5.6600437E-2,2.641807E-2,1.558732E-1,2.5576508E-2,-1.075387E-1,1.7099874E-2,7.242235E-2,1.2941618E-1,-6.4483625E-1,1.0569395E0,1.0405124E0,-1.805457E0,1.8431437E0,4.0402775E0,8.138743E-1,1.9656624E0,-2.9484499E-1,-2.5918398E0,9.844259E-2,-7.172961E-1,4.513368E0,-2.4421106E-1,1.9894147E-1,-1.0315275E0,-3.282414E-1,4.4620526E-1,-1.1030287E0,2.687672E0,4.397132E0,1.6452496E0,9.040452E-1,-6.2574315E-1,4.7749716E-1,-8.482074E-1,1.0951171E0,2.200511E0,5.490744E-2,9.544423E-1,-6.952523E-1,2.2423986E-1],"split_indices":[10,4,3,6,6,0,0,5,0,5,5,5,7,8,3,8,3,5,1,0,7,1,1,7,5,0,10,6,4,0,5,0,0,0,0,0,0,0,0,0,0,0,0,0,0,0,0,0,0,0,0,0,0,0,0,0,0,0,0,0,0,0,0],"split_type":[0,0,0,0,0,0,0,0,0,0,0,0,0,0,0,0,0,0,0,0,0,0,0,0,0,0,0,0,0,0,0,0,0,0,0,0,0,0,0,0,0,0,0,0,0,0,0,0,0,0,0,0,0,0,0,0,0,0,0,0,0,0,0],"sum_hessian":[7.168075E7,7.136229E6,6.454453E7,1.792707E6,5.343522E6,2.5352976E7,3.9191548E7,5.59804E5,1.232903E6,2.970136E6,2.373386E6,1.305089E7,1.2302087E7,1.5642245E7,2.3549304E7,3.1246E5,2.47344E5,8.06123E5,4.2678E5,2.059549E6,9.10587E5,1.32853E5,2.240533E6,6.651737E6,6.399153E6,1.72308E6,1.0579007E7,5.498373E6,1.0143872E7,1.063888E7,1.2910424E7,1.7884E5,1.3362E5,2.7183E4,2.20161E5,1.94812E5,6.11311E5,1.51592E5,2.75188E5,6.16213E5,1.443336E6,5.57528E5,3.53059E5,9.326E4,3.9593E4,1.745097E6,4.95436E5,2.563213E6,4.088524E6,6.075909E6,3.23244E5,1.206898E6,5.16182E5,5.749228E6,4.829779E6,4.652572E6,8.45801E5,5.424993E6,4.718879E6,5.667447E6,4.971433E6,6.131428E6,6.778996E6],"tree_param":{"num_deleted":"0","num_feature":"15","num_nodes":"63","size_leaf_vector":"0"}},{"base_weights":[3.1947508E-1,3.7245893E-1,-9.6671385E-1,4.402391E-1,-8.339359E-1,-1.539919E0,8.7142724E-1,4.7727443E-2,5.7958865E-1,-1.8919946E0,1.9199724E0,1.8070197E-1,-2.7228184E0,1.8012453E0,-1.0321668E0,1.0001823E0,-6.006759E-1,9.429553E-1,2.526028E-1,2.0653203E-1,-3.1226978E0,3.6522005E0,-1.6158371E0,1.132498E0,-1.3480229E0,-4.101333E0,6.855654E-2,-1.4890379E0,2.8935854E0,5.643477E0,-1.235291E0,-5.197565E-1,9.310452E-1,3.1020647E-1,-6.8866014E-1,1.4119914E-1,1.0051374E0,1.452567E0,3.5887645E-3,-7.4710324E-2,3.4547787E0,-1.9465909E0,-3.2268745E-1,1.0277113E-1,2.1041982E0,-1.0190037E0,9.326836E-2,-8.2376903E-1,8.2971483E-1,-8.4246635E-1,9.581582E-1,-2.395786E0,1.7995594E-2,-4.1054374E-1,7.9686224E-1,2.7496362E0,-8.248423E-1,2.1524224E0,5.358919E-1,4.0788263E-1,6.399263E0,-1.4298887E0,-5.5639356E-2],"categories":[],"categories_nodes":[],"categories_segments":[],"categories_sizes":[],"default_left":[0,0,0,0,0,0,0,0,0,0,0,0,0,0,0,0,0,0,0,0,0,0,0,0,0,0,0,0,0,0,0,0,0,0,0,0,0,0,0,0,0,0,0,0,0,0,0,0,0,0,0,0,0,0,0,0,0,0,0,0,0,0,0],"id":6,"left_children":[1,3,5,7,9,11,13,15,17,19,21,23,25,27,29,31,33,35,37,39,41,43,45,47,49,51,53,55,57,59,61,-1,-1,-1,-1,-1,-1,-1,-1,-1,-1,-1,-1,-1,-1,-1,-1,-1,-1,-1,-1,-1,-1,-1,-1,-1,-1,-1,-1,-1,-1,-1,-1],"loss_changes":[4.8848455E6,5.629412E6,2.9881238E6,3.565243E6,1.0670968E7,4.4000925E6,1.1932555E6,1.0546978E7,5.71557E6,6.83302E6,6.2258635E6,1.2815215E6,4.929682E6,1.6278621E6,2.999955E5,1.216066E7,9.63606E6,1.6063798E7,1.6483116E7,2.3335558E6,3.183183E6,1.30789E6,2.5432881E5,7.95143E5,3.7167775E5,2.449073E6,5.746612E5,1.2674384E5,8.7423975E5,2.2565578E5,3.920314E5,0E0,0E0,0E0,0E0,0E0,0E0,0E0,0E0,0E0,0E0,0E0,0E0,0E0,0E0,0E0,0E0,0E0,0E0,0E0,0E0,0E0,0E0,0E0,0E0,0E0,0E0,0E0,0E0,0E0,0E0,0E0,0E0],"parents":[2147483647,0,0,1,1,2,2,3,3,4,4,5,5,6,6,7,7,8,8,9,9,10,10,11,11,12,12,13,13,14,14,15,15,16,16,17,17,18,18,19,19,20,20,21,21,22,22,23,23,24,24,25,25,26,26,27,27,28,28,29,29,30,30],"right_children":[2,4,6,8,10,12,14,16,18,20,22,24,26,28,30,32,34,36,38,40,42,44,46,48,50,52,54,56,58,60,62,-1,-1,-1,-1,-1,-1,-1,-1,-1,-1,-1,-1,-1,-1,-1,-1,-1,-1,-1,-1,-1,-1,-1,-1,-1,-1,-1,-1,-1,-1,-1,-1],"split_conditions":[3.702632E-1,3.0628717E-1,1.7008391E-1,-9.656129E-2,1.3368809E-1,-1.6247486E-1,1.4803734E-1,-4.0818594E-2,-3.6211233E-3,-1.4467408E-1,1.1020858E-1,6.38488E-4,1.4028536E-1,-3.0323237E-1,1.233046E-1,-4.4286568E-2,-3.8484443E-2,-5.1592463E-3,-3.0483903E-2,4.598856E-2,1.7417996E-1,-4.3605617E-1,3.8140035E-1,-2.9187545E-1,-8.0039045E-3,1.552319E-1,3.2500273E-1,-3.3125234E-1,1.1086555E-1,3.754165E-1,3.6417472E-1,-5.197565E-1,9.310452E-1,3.1020647E-1,-6.8866014E-1,1.4119914E-1,1.0051374E0,1.452567E0,3.5887645E-3,-7.4710324E-2,3.4547787E0,-1.9465909E0,-3.2268745E-1,1.0277113E-1,2.1041982E0,-1.0190037E0,9.326836E-2,-8.2376903E-1,8.2971483E-1,-8.4246635E-1,9.581582E-1,-2.395786E0,1.7995594E-2,-4.1054374E-1,7.9686224E-1,2.7496362E0,-8.248423E-1,2.1524224E0,5.358919E-1,4.0788263E-1,6.399263E0,-1.4298887E0,-5.5639356E-2],"split_indices":[10,1,4,1,7,6,6,7,5,5,5,3,6,6,0,5,10,6,4,6,5,5,0,2,5,1,6,2,11,2,0,0,0,0,0,0,0,0,0,0,0,0,0,0,0,0,0,0,0,0,0,0,0,0,0,0,0,0,0,0,0,0,0],"split_type":[0,0,0,0,0,0,0,0,0,0,0,0,0,0,0,0,0,0,0,0,0,0,0,0,0,0,0,0,0,0,0,0,0,0,0,0,0,0,0,0,0,0,0,0,0,0,0,0,0,0,0,0,0,0,0,0,0,0,0,0,0,0,0],"sum_hessian":[7.168075E7,6.884474E7,2.83602E6,6.5182516E7,3.662219E6,2.161865E6,6.74155E5,1.7078056E7,4.810446E7,2.645725E6,1.016494E6,8.80748E5,1.281117E6,4.52923E5,2.21232E5,6.917207E6,1.0160848E7,2.2784704E7,2.5319756E7,9.78035E5,1.66769E6,6.82252E5,3.34242E5,5.42798E5,3.3795E5,8.57595E5,4.23522E5,1.12888E5,3.40035E5,6.532E3,2.147E5,2.054725E6,4.862482E6,3.95016E6,6.210688E6,1.4074247E7,8.710457E6,2.144306E6,2.3175452E7,9.28718E5,4.9317E4,1.27206E6,3.9563E5,9.4799E4,5.87453E5,2.7081E5,6.3432E4,8.6489E4,4.56309E5,3.06334E5,3.1616E4,7.34977E5,1.22618E5,2.67492E5,1.5603E5,2.536E3,1.10352E5,1.91606E5,1.48429E5,3.901E3,2.631E3,8.7802E4,1.26898E5],"tree_param":{"num_deleted":"0","num_feature":"15","num_nodes":"63","size_leaf_vector":"0"}},{"base_weights":[1.5973747E-1,1.0256808E0,1.07721545E-1,1.5531137E0,7.081972E-1,-1.5749112E-1,2.755787E-1,2.1628602E0,5.47743E-3,1.7715154E0,1.9081517E-1,-8.513721E-1,4.016531E-1,9.557964E-1,-1.3154118E-1,2.497498E0,-1.238231E0,-7.1741426E-1,4.279475E-1,8.099494E-1,2.7382889E0,-6.756478E-1,5.796936E-1,-1.6784775E0,2.470315E-2,1.8806608E0,-3.7101817E-1,-1.1579523E0,1.4890826E0,8.056798E-1,-3.7043676E-1,7.8146654E-1,1.7778425E0,-1.7981723E-1,-1.6879687E0,1.5381216E-1,-7.2790754E-1,7.2659865E-2,6.6846436E-1,1.3911787E-1,9.0624577E-1,1.6322038E0,-2.85506E-1,8.458884E-2,-7.5791687E-1,6.45435E-1,-3.353317E-1,-6.5439686E-2,-1.2533469E0,2.2788668E-1,-1.7296369E0,1.709518E0,7.621935E-2,-7.6856214E-1,-1.9288836E-2,-7.3179966E-1,1.6698886E0,9.004708E-1,-3.4361672E-1,9.3273807E-1,-1.5143038E-1,-2.982168E-1,5.11703E-1],"categories":[],"categories_nodes":[],"categories_segments":[],"categories_sizes":[],"default_left":[0,0,0,0,0,0,0,0,0,0,0,0,0,0,0,0,0,0,0,0,0,0,0,0,0,0,0,0,0,0,0,0,0,0,0,0,0,0,0,0,0,0,0,0,0,0,0,0,0,0,0,0,0,0,0,0,0,0,0,0,0,0,0],"id":7,"left_children":[1,3,5,7,9,11,13,15,17,19,21,23,25,27,29,31,33,35,37,39,41,43,45,47,49,51,53,55,57,59,61,-1,-1,-1,-1,-1,-1,-1,-1,-1,-1,-1,-1,-1,-1,-1,-1,-1,-1,-1,-1,-1,-1,-1,-1,-1,-1,-1,-1,-1,-1,-1,-1],"loss_changes":[3.2287055E6,6.80148E5,3.0102518E6,1.4402605E6,1.3949021E6,1.016856E7,1.1467671E7,1.2461165E6,1.3173953E5,7.71496E5,5.7470825E5,8.474555E6,1.6585977E7,1.7477392E7,5.8001425E6,9.857735E5,1.8420517E5,1.2042987E5,6.994328E4,2.2179575E5,7.2052175E5,3.750407E5,1.04684725E6,7.710762E6,8.529787E6,1.3241156E7,3.6956585E6,4.294154E6,8.403048E6,6.1818765E6,6.5027395E6,0E0,0E0,0E0,0E0,0E0,0E0,0E0,0E0,0E0,0E0,0E0,0E0,0E0,0E0,0E0,0E0,0E0,0E0,0E0,0E0,0E0,0E0,0E0,0E0,0E0,0E0,0E0,0E0,0E0,0E0,0E0,0E0],"parents":[2147483647,0,0,1,1,2,2,3,3,4,4,5,5,6,6,7,7,8,8,9,9,10,10,11,11,12,12,13,13,14,14,15,15,16,16,17,17,18,18,19,19,20,20,21,21,22,22,23,23,24,24,25,25,26,26,27,27,28,28,29,29,30,30],"right_children":[2,4,6,8,10,12,14,16,18,20,22,24,26,28,30,32,34,36,38,40,42,44,46,48,50,52,54,56,58,60,62,-1,-1,-1,-1,-1,-1,-1,-1,-1,-1,-1,-1,-1,-1,-1,-1,-1,-1,-1,-1,-1,-1,-1,-1,-1,-1,-1,-1,-1,-1,-1,-1],"split_conditions":[-3.1228504E-1,1.3082867E-3,-2.9708313E-2,5.798015E-4,-9.201295E-3,-4.454981E-3,-1.3201584E-2,2.2090895E-2,-1.0906477E-1,-2.7928796E-1,-2.4675952E-1,-2.1561215E-2,-4.59168E-2,-1.2289971E-1,-7.519969E-2,-1.9040175E-1,2.8728095E-1,-5.574906E-1,2.9627156E-1,3.0893293E-1,6.067292E-4,2.8728095E-1,1.6688788E-2,-1.6881604E-1,-5.289893E-2,1.3475141E-1,6.22624E-2,4.503432E-2,-1.436825E-3,4.6017498E-2,2.5836542E-1,7.8146654E-1,1.7778425E0,-1.7981723E-1,-1.6879687E0,1.5381216E-1,-7.2790754E-1,7.2659865E-2,6.6846436E-1,1.3911787E-1,9.0624577E-1,1.6322038E0,-2.85506E-1,8.458884E-2,-7.5791687E-1,6.45435E-1,-3.353317E-1,-6.5439686E-2,-1.2533469E0,2.2788668E-1,-1.7296369E0,1.709518E0,7.621935E-2,-7.6856214E-1,-1.9288836E-2,-7.3179966E-1,1.6698886E0,9.004708E-1,-3.4361672E-1,9.3273807E-1,-1.5143038E-1,-2.982168E-1,5.11703E-1],"split_indices":[0,2,3,1,9,13,14,3,2,8,7,7,8,9,7,3,10,0,9,3,7,10,7,0,5,0,6,7,13,2,0,0,0,0,0,0,0,0,0,0,0,0,0,0,0,0,0,0,0,0,0,0,0,0,0,0,0,0,0,0,0,0,0],"split_type":[0,0,0,0,0,0,0,0,0,0,0,0,0,0,0,0,0,0,0,0,0,0,0,0,0,0,0,0,0,0,0,0,0,0,0,0,0,0,0,0,0,0,0,0,0,0,0,0,0,0,0,0,0,0,0,0,0,0,0,0,0,0,0],"sum_hessian":[7.168075E7,4.061771E6,6.7618984E7,1.526239E6,2.535532E6,2.6209008E7,4.1409976E7,1.094874E6,4.31365E5,8.29909E5,1.705623E6,1.1695387E7,1.4513621E7,1.5504682E7,2.5905294E7,9.96798E5,9.8076E4,1.5911E5,2.72255E5,4.16076E5,4.13833E5,5.28366E5,1.177257E6,6.015826E6,5.679561E6,4.980398E6,9.533223E6,3.123658E6,1.2381024E7,5.261944E6,2.064335E7,5.29319E5,4.67479E5,6.9509E4,2.8567E4,6.6624E4,9.2486E4,2.07682E5,6.4573E4,2.71881E5,1.44195E5,3.57066E5,5.6767E4,2.63456E5,2.6491E5,7.50429E5,4.26828E5,2.097136E6,3.91869E6,5.054208E6,6.25353E5,2.634923E6,2.345475E6,2.114868E6,7.418355E6,2.924895E6,1.98763E5,1.0829231E7,1.551793E6,2.690116E6,2.571828E6,1.7763232E7,2.880119E6],"tree_param":{"num_deleted":"0","num_feature":"15","num_nodes":"63","size_leaf_vector":"0"}},{"base_weights":[7.986875E-2,-5.089497E-1,1.3654576E-1,8.873394E-1,-1.1834425E0,2.905283E-1,-1.593973E-1,-3.809833E-1,2.5969725E0,-1.9299897E0,6.0546005E-1,6.240644E-1,-8.118404E-2,-6.7752934E-1,6.015037E-1,-1.199192E0,5.842092E-1,-1.4637746E-1,5.964441E0,-2.625586E0,-5.770892E-1,-9.3794787E-1,1.8234272E0,3.022548E-3,1.3436294E0,4.7426438E-1,-1.0523129E0,-9.1992635E-1,8.102568E-1,1.2668002E0,-4.7220486E-1,1.0681295E-1,-1.0668063E0,5.080949E-1,-1.805458E0,2.665526E0,-2.9957065E-1,3.455696E0,8.7074494E-1,-3.1752017E-1,-1.7891647E0,5.5058074E-1,-5.364424E-1,-2.2158247E-1,-9.1495955E-1,1.9669653E0,5.458146E-1,-6.122266E-2,2.0052028E0,-1.3102123E-1,8.555971E-1,9.7334474E-1,-6.482693E-2,-7.2130704E-1,3.4463954E-1,-4.7198046E-2,-8.8904446E-1,1.6478602E-2,8.4788424E-1,-2.8087837E-1,8.6459744E-1,-3.447715E-1,4.9759334E-1],"categories":[],"categories_nodes":[],"categories_segments":[],"categories_sizes":[],"default_left":[0,0,0,0,0,0,0,0,0,0,0,0,0,0,0,0,0,0,0,0,0,0,0,0,0,0,0,0,0,0,0,0,0,0,0,0,0,0,0,0,0,0,0,0,0,0,0,0,0,0,0,0,0,0,0,0,0,0,0,0,0,0,0],"id":8,"left_children":[1,3,5,7,9,11,13,15,17,19,21,23,25,27,29,31,33,35,37,39,41,43,45,47,49,51,53,55,57,59,61,-1,-1,-1,-1,-1,-1,-1,-1,-1,-1,-1,-1,-1,-1,-1,-1,-1,-1,-1,-1,-1,-1,-1,-1,-1,-1,-1,-1,-1,-1,-1,-1],"loss_changes":[2.3921642E6,5.9274655E6,2.9796852E6,4.4452085E6,5.6676285E6,5.332221E6,8.82247E6,9.29443E5,8.065953E6,2.817812E6,2.3489648E6,1.0130105E7,1.0971844E7,4.8010445E6,6.4756285E6,8.408883E5,9.785224E5,1.1932341E6,1.567448E6,3.750312E6,8.460028E5,2.4323984E5,1.0786762E6,6.1176575E6,6.19774E6,1.1506108E7,5.030724E6,8.109965E6,1.2837661E6,4.732464E6,1.1060556E6,0E0,0E0,0E0,0E0,0E0,0E0,0E0,0E0,0E0,0E0,0E0,0E0,0E0,0E0,0E0,0E0,0E0,0E0,0E0,0E0,0E0,0E0,0E0,0E0,0E0,0E0,0E0,0E0,0E0,0E0,0E0,0E0],"parents":[2147483647,0,0,1,1,2,2,3,3,4,4,5,5,6,6,7,7,8,8,9,9,10,10,11,11,12,12,13,13,14,14,15,15,16,16,17,17,18,18,19,19,20,20,21,21,22,22,23,23,24,24,25,25,26,26,27,27,28,28,29,29,30,30],"right_children":[2,4,6,8,10,12,14,16,18,20,22,24,26,28,30,32,34,36,38,40,42,44,46,48,50,52,54,56,58,60,62,-1,-1,-1,-1,-1,-1,-1,-1,-1,-1,-1,-1,-1,-1,-1,-1,-1,-1,-1,-1,-1,-1,-1,-1,-1,-1,-1,-1,-1,-1,-1,-1],"split_conditions":[-2.4861328E-1,-6.518941E-2,7.5951256E-2,6.7078546E-2,2.4586503E-1,1.6688788E-2,5.5271484E-2,-1.2016244E-1,-1.6635862E-1,1.4960977E-1,-3.865119E-4,1.7783768E-2,6.483723E-2,9.940921E-2,5.2061312E-2,-1.8126068E-1,3.0706182E-1,-2.6252756E-1,3.478917E-1,-7.8710794E-2,3.600657E-3,9.6449606E-2,2.0419644E-1,4.1167893E-2,-1.3642967E-1,0E0,1.715024E-1,-9.306678E-2,-7.473317E-2,-1.453593E-1,3.992502E-1,1.0681295E-1,-1.0668063E0,5.080949E-1,-1.805458E0,2.665526E0,-2.9957065E-1,3.455696E0,8.7074494E-1,-3.1752017E-1,-1.7891647E0,5.5058074E-1,-5.364424E-1,-2.2158247E-1,-9.1495955E-1,1.9669653E0,5.458146E-1,-6.122266E-2,2.0052028E0,-1.3102123E-1,8.555971E-1,9.7334474E-1,-6.482693E-2,-7.2130704E-1,3.4463954E-1,-4.7198046E-2,-8.8904446E-1,1.6478602E-2,8.4788424E-1,-2.8087837E-1,8.6459744E-1,-3.447715E-1,4.9759334E-1],"split_indices":[1,6,1,5,6,7,7,3,8,5,9,5,10,0,5,7,10,3,4,10,6,4,8,0,10,0,0,0,10,0,0,0,0,0,0,0,0,0,0,0,0,0,0,0,0,0,0,0,0,0,0,0,0,0,0,0,0,0,0,0,0,0,0],"split_type":[0,0,0,0,0,0,0,0,0,0,0,0,0,0,0,0,0,0,0,0,0,0,0,0,0,0,0,0,0,0,0,0,0,0,0,0,0,0,0,0,0,0,0,0,0,0,0,0,0,0,0,0,0,0,0,0,0,0,0,0,0,0,0],"sum_hessian":[7.168075E7,6.293848E6,6.5386908E7,2.050025E6,4.243823E6,4.3008892E7,2.2378014E7,1.176912E6,8.73113E5,2.994256E6,1.249567E6,2.2668516E7,2.0340376E7,1.3312755E7,9.065259E6,6.36955E5,5.39957E5,4.81144E5,3.91969E5,1.977513E6,1.016743E6,5.5115E5,6.98417E5,1.2167229E7,1.0501287E7,1.2939487E7,7.40089E6,1.1447651E7,1.865104E6,5.597135E6,3.468124E6,2.53568E5,3.83387E5,4.89548E5,5.0409E4,3.6734E4,4.4441E5,3.20173E5,7.1796E4,6.40122E5,1.337391E6,2.3187E5,7.84873E5,3.54505E5,1.96645E5,1.79818E5,5.18599E5,1.1797849E7,3.6938E5,1.956128E6,8.545159E6,3.763535E6,9.175952E6,6.045955E6,1.354935E6,5.834762E6,5.612889E6,9.93241E5,8.71863E5,1.129699E6,4.467436E6,3.02072E6,4.47404E5],"tree_param":{"num_deleted":"0","num_feature":"15","num_nodes":"63","size_leaf_vector":"0"}},{"base_weights":[3.9934482E-2,8.543819E-1,1.213852E-2,5.33122E-1,1.2846485E0,3.0400384E-2,-1.5159779E0,8.447022E-1,-1.1062547E-1,1.9488013E0,9.3455255E-1,-7.537118E-1,6.0490735E-2,-2.24327E0,1.5002443E-1,1.4357917E-1,1.0274047E0,9.847602E-1,-6.7603564E-1,2.5550807E0,-9.52684E-1,2.1094568E0,-1.1183205E-1,1.4915528E0,-1.2139314E0,3.547034E-2,7.5287706E-1,-2.9405966E0,-8.178033E-1,-1.4459071E0,8.674223E-1,4.7226518E-1,-2.0733903E-1,7.54142E-1,2.8729966E-1,8.524781E-1,-1.6410783E-1,-2.9238552E-1,-2.0173817E0,1.3519554E0,-1.0866204E-1,-3.3625215E-2,-1.5413845E0,1.875772E0,9.1442806E-1,-3.5919905E-1,8.5971755E-1,-1.6594912E0,9.858184E-1,-9.8057806E-1,-1.4394382E-1,4.4897195E-2,-1.6989015E-1,3.822472E-2,6.84808E-1,-8.8138625E-2,-1.8235185E0,-5.3750515E-1,1.1869259E0,-2.6296718E0,-1.2950024E-1,1.219468E0,-3.2676876E-1],"categories":[],"categories_nodes":[],"categories_segments":[],"categories_sizes":[],"default_left":[0,0,0,0,0,0,0,0,0,0,0,0,0,0,0,0,0,0,0,0,0,0,0,0,0,0,0,0,0,0,0,0,0,0,0,0,0,0,0,0,0,0,0,0,0,0,0,0,0,0,0,0,0,0,0,0,0,0,0,0,0,0,0],"id":9,"left_children":[1,3,5,7,9,11,13,15,17,19,21,23,25,27,29,31,33,35,37,39,41,43,45,47,49,51,53,55,57,59,61,-1,-1,-1,-1,-1,-1,-1,-1,-1,-1,-1,-1,-1,-1,-1,-1,-1,-1,-1,-1,-1,-1,-1,-1,-1,-1,-1,-1,-1,-1,-1,-1],"loss_changes":[1.622734E6,3.2699412E5,1.9343255E6,2.716602E5,2.3513112E5,1.6161222E6,9.9184075E5,1.16907375E5,2.7358394E5,6.1403775E5,8.140989E5,2.6157515E6,1.1427654E6,5.66407E5,2.848053E5,8.435812E4,1.5764369E5,1.4220556E5,8.9305125E4,1.1913525E5,1.13788875E5,1.437255E5,3.8905684E5,9.944834E5,1.4536798E6,1.29781E6,9.597671E5,7.4722075E5,1.536649E5,3.491628E5,4.101925E5,0E0,0E0,0E0,0E0,0E0,0E0,0E0,0E0,0E0,0E0,0E0,0E0,0E0,0E0,0E0,0E0,0E0,0E0,0E0,0E0,0E0,0E0,0E0,0E0,0E0,0E0,0E0,0E0,0E0,0E0,0E0,0E0],"parents":[2147483647,0,0,1,1,2,2,3,3,4,4,5,5,6,6,7,7,8,8,9,9,10,10,11,11,12,12,13,13,14,14,15,15,16,16,17,17,18,18,19,19,20,20,21,21,22,22,23,23,24,24,25,25,26,26,27,27,28,28,29,29,30,30],"right_children":[2,4,6,8,10,12,14,16,18,20,22,24,26,28,30,32,34,36,38,40,42,44,46,48,50,52,54,56,58,60,62,-1,-1,-1,-1,-1,-1,-1,-1,-1,-1,-1,-1,-1,-1,-1,-1,-1,-1,-1,-1,-1,-1,-1,-1,-1,-1,-1,-1,-1,-1,-1,-1],"split_conditions":[-3.9363596E-1,-1.6656286E-1,5.0616443E-1,2.8728095E-1,5.798015E-4,-3.7407988E-1,1.4624102E-1,-3.593359E-1,-6.460001E-2,2.2090895E-2,6.067292E-4,-1.9519152E-1,3.6417472E-1,9.275369E-2,-8.1148505E-2,-7.9561806E-1,-9.201295E-3,-5.588566E-1,5.961388E-2,7.0997065E-1,6.6599555E-2,-9.201295E-3,2.8728095E-1,-1.3119139E-1,1.3305868E-1,1.7760614E-1,-3.865119E-4,-1.9325429E-1,4.670666E-1,1.4423059E-1,1.6175455E-1,4.7226518E-1,-2.0733903E-1,7.54142E-1,2.8729966E-1,8.524781E-1,-1.6410783E-1,-2.9238552E-1,-2.0173817E0,1.3519554E0,-1.0866204E-1,-3.3625215E-2,-1.5413845E0,1.875772E0,9.1442806E-1,-3.5919905E-1,8.5971755E-1,-1.6594912E0,9.858184E-1,-9.8057806E-1,-1.4394382E-1,4.4897195E-2,-1.6989015E-1,3.822472E-2,6.84808E-1,-8.8138625E-2,-1.8235185E0,-5.3750515E-1,1.1869259E0,-2.6296718E0,-1.2950024E-1,1.219468E0,-3.2676876E-1],"split_indices":[0,7,10,10,1,10,4,9,3,3,7,4,0,6,1,6,9,6,5,10,4,9,10,6,6,10,9,7,0,5,14,0,0,0,0,0,0,0,0,0,0,0,0,0,0,0,0,0,0,0,0,0,0,0,0,0,0,0,0,0,0,0,0],"split_type":[0,0,0,0,0,0,0,0,0,0,0,0,0,0,0,0,0,0,0,0,0,0,0,0,0,0,0,0,0,0,0,0,0,0,0,0,0,0,0,0,0,0,0,0,0,0,0,0,0,0,0,0,0,0,0,0,0,0,0,0,0,0,0],"sum_hessian":[7.168075E7,2.365628E6,6.931513E7,1.354379E6,1.011249E6,6.849655E7,8.18572E5,9.12648E5,4.41731E5,3.49059E5,6.6219E5,2.531415E6,6.596514E7,5.69818E5,2.48754E5,1.88661E5,7.23987E5,1.50385E5,2.91346E5,2.88728E5,6.0331E4,3.11938E5,3.50252E5,4.30609E5,2.100806E6,6.366453E7,2.30061E6,3.82635E5,1.87183E5,7.7142E4,1.71612E5,7.7487E4,1.11174E5,3.51108E5,3.72879E5,9.7115E4,5.327E4,2.8364E5,7.706E3,2.74018E5,1.471E4,4.2617E4,1.7714E4,4.5523E4,2.66415E5,2.63105E5,8.7147E4,3.9074E4,3.91535E5,1.162657E6,9.38149E5,5.5613508E7,8.051021E6,1.097211E6,1.203399E6,7.7882E4,3.04753E5,1.73224E5,1.3959E4,1.831E4,5.8832E4,8.4403E4,8.7209E4],"tree_param":{"num_deleted":"0","num_feature":"15","num_nodes":"63","size_leaf_vector":"0"}},{"base_weights":[1.9967087E-2,2.2792473E-1,-6.5234154E-2,-5.0430644E-1,8.14E-1,4.9978393E-1,-2.1389146E-1,8.54913E-2,-1.5970098E0,2.0508738E0,4.7661766E-1,1.6837487E0,-9.863708E-2,2.2707908E0,-2.643573E-1,-8.6937124E-1,3.2785234E-1,-1.8635737E0,4.9901867E0,-9.943282E-1,3.534067E0,1.12045445E-1,1.4526845E0,7.4843746E-1,2.7771947E0,3.4276876E0,-1.6079184E-1,2.8076117E0,-3.127793E0,-9.688526E-1,-4.3344498E-2,1.6543481E-1,-6.1577976E-1,4.4518235E-1,-4.2813092E-2,-1.382426E0,-2.9762593E-1,1.8668373E-1,4.049817E0,4.3862823E-1,-1.0160009E0,1.3914464E0,2.6682057E0,2.2100061E-1,-5.258562E-1,2.4106063E-1,1.0551381E0,-1.1768214E0,5.633629E-1,2.1712337E0,5.3355247E-1,7.392141E-1,3.8483958E0,-1.2931678E0,-2.4718005E-2,1.611639E0,-2.3739567E0,-3.4018905E0,1.9525857E0,-3.0478978E-1,-1.7982693E0,7.9409695E-1,-5.5900495E-2],"categories":[],"categories_nodes":[],"categories_segments":[],"categories_sizes":[],"default_left":[0,0,0,0,0,0,0,0,0,0,0,0,0,0,0,0,0,0,0,0,0,0,0,0,0,0,0,0,0,0,0,0,0,0,0,0,0,0,0,0,0,0,0,0,0,0,0,0,0,0,0,0,0,0,0,0,0,0,0,0,0,0,0],"id":10,"left_children":[1,3,5,7,9,11,13,15,17,19,21,23,25,27,29,31,33,35,37,39,41,43,45,47,49,51,53,55,57,59,61,-1,-1,-1,-1,-1,-1,-1,-1,-1,-1,-1,-1,-1,-1,-1,-1,-1,-1,-1,-1,-1,-1,-1,-1,-1,-1,-1,-1,-1,-1,-1,-1],"loss_changes":[1.2700575E6,8.940197E6,4.2709355E6,5.968812E6,4.8286415E6,7.504221E6,5.0478285E6,1.3919806E6,5.700762E6,1.1200517E7,3.2351202E6,3.636792E6,1.5420339E6,2.3224222E6,6.143263E6,5.2932244E5,1.1157842E6,3.566895E6,1.8127135E6,1.577425E6,2.257728E6,2.5416372E6,1.577898E6,2.2491015E6,4.388331E6,1.01405775E6,1.8673726E6,2.289141E6,1.8738328E6,8.894854E6,3.3543892E6,0E0,0E0,0E0,0E0,0E0,0E0,0E0,0E0,0E0,0E0,0E0,0E0,0E0,0E0,0E0,0E0,0E0,0E0,0E0,0E0,0E0,0E0,0E0,0E0,0E0,0E0,0E0,0E0,0E0,0E0,0E0,0E0],"parents":[2147483647,0,0,1,1,2,2,3,3,4,4,5,5,6,6,7,7,8,8,9,9,10,10,11,11,12,12,13,13,14,14,15,15,16,16,17,17,18,18,19,19,20,20,21,21,22,22,23,23,24,24,25,25,26,26,27,27,28,28,29,29,30,30],"right_children":[2,4,6,8,10,12,14,16,18,20,22,24,26,28,30,32,34,36,38,40,42,44,46,48,50,52,54,56,58,60,62,-1,-1,-1,-1,-1,-1,-1,-1,-1,-1,-1,-1,-1,-1,-1,-1,-1,-1,-1,-1,-1,-1,-1,-1,-1,-1,-1,-1,-1,-1,-1,-1],"split_conditions":[-7.869402E-2,-3.0483903E-2,-7.141946E-2,-1.8384542E-1,2.2090895E-2,-7.8710794E-2,-6.640844E-2,-1.9739303E-1,-7.1997046E-3,-8.92905E-2,-1.0570213E-1,-5.0214697E-2,-1.3397582E-1,2.4228981E-1,6.306032E-3,-4.6688852E-1,5.798015E-4,-7.319043E-2,-2.0098776E-1,6.940826E-4,5.3545162E-2,5.7112545E-2,-1.48528E-1,-4.4183977E-2,1.5941034E-1,-9.542141E-2,-4.7580205E-2,3.298592E-1,1.4746079E-1,1.4442334E-1,-1.0254022E-2,1.6543481E-1,-6.1577976E-1,4.4518235E-1,-4.2813092E-2,-1.382426E0,-2.9762593E-1,1.8668373E-1,4.049817E0,4.3862823E-1,-1.0160009E0,1.3914464E0,2.6682057E0,2.2100061E-1,-5.258562E-1,2.4106063E-1,1.0551381E0,-1.1768214E0,5.633629E-1,2.1712337E0,5.3355247E-1,7.392141E-1,3.8483958E0,-1.2931678E0,-2.4718005E-2,1.611639E0,-2.3739567E0,-3.4018905E0,1.9525857E0,-3.0478978E-1,-1.7982693E0,7.9409695E-1,-5.5900495E-2],"split_indices":[6,4,5,0,3,10,0,8,0,9,7,0,9,10,5,0,1,8,9,5,5,9,0,7,6,3,7,1,2,10,0,0,0,0,0,0,0,0,0,0,0,0,0,0,0,0,0,0,0,0,0,0,0,0,0,0,0,0,0,0,0,0,0],"split_type":[0,0,0,0,0,0,0,0,0,0,0,0,0,0,0,0,0,0,0,0,0,0,0,0,0,0,0,0,0,0,0,0,0,0,0,0,0,0,0,0,0,0,0,0,0,0,0,0,0,0,0,0,0,0,0,0,0,0,0,0,0,0,0],"sum_hessian":[7.168075E7,2.0832694E7,5.084806E7,9.261524E6,1.157117E7,1.0591559E7,4.0256504E7,6.014914E6,3.24661E6,2.479842E6,9.091328E6,3.556026E6,7.035533E6,8.01364E5,3.9455136E7,1.217634E6,4.79728E6,3.12034E6,1.2627E5,8.12227E5,1.667615E6,6.619041E6,2.472287E6,1.916604E6,1.639422E6,1.21859E5,6.913674E6,7.28886E5,7.2478E4,9.421949E6,3.0033188E7,2.82261E5,9.35373E5,2.032367E6,2.764913E6,1.824112E6,1.296228E6,5.0818E4,7.5452E4,2.89705E5,5.22522E5,1.177051E6,4.90564E5,5.15692E6,1.462121E6,9.98527E5,1.47376E6,2.08319E5,1.708285E6,8.55953E5,7.83469E5,8.3661E4,3.8198E4,3.03471E5,6.610203E6,6.90878E5,3.8008E4,4.7599E4,2.4879E4,8.288673E6,1.133276E6,1.209395E6,2.8823794E7],"tree_param":{"num_deleted":"0","num_feature":"15","num_nodes":"63","size_leaf_vector":"0"}},{"base_weights":[9.983702E-3,-5.8384085E-1,4.2991083E-2,-1.170315E0,2.2760756E-2,-3.6827333E-2,2.6144087E-1,-3.31856E-1,-2.331081E0,1.8051369E0,-3.583299E-1,1.2846954E-1,-2.764307E-1,4.9359423E-1,-5.611906E-1,1.59696E0,-6.20689E-1,-2.9111304E0,1.1529328E0,-1.7991146E-1,3.5187638E0,-8.749749E-1,5.3418815E-1,-9.3096755E-2,1.0932089E0,-9.895138E-1,6.0330685E-3,1.6868839E-1,8.720678E-1,8.8691723E-1,-8.157454E-1,7.5367354E-2,2.0971417E0,-6.232093E-1,2.9325485E-1,-1.8762355E0,1.2083899E-1,-7.747184E-1,1.7404017E0,2.0422904E0,-2.090608E-1,1.8558446E0,-4.886024E0,-1.7730247E-2,-6.308772E-1,5.761225E-1,-6.0573524E-1,-1.6572444E-1,4.5890382E-1,6.6198474E-1,-1.1596686E0,1.4613731E0,-6.0477227E-1,2.4001491E-1,-3.6148036E-1,4.428333E-1,-2.504873E-1,-1.4073676E-1,8.561057E-1,-3.6401072E-1,7.460303E-1,-1.4087998E0,-3.411642E-1],"categories":[],"categories_nodes":[],"categories_segments":[],"categories_sizes":[],"default_left":[0,0,0,0,0,0,0,0,0,0,0,0,0,0,0,0,0,0,0,0,0,0,0,0,0,0,0,0,0,0,0,0,0,0,0,0,0,0,0,0,0,0,0,0,0,0,0,0,0,0,0,0,0,0,0,0,0,0,0,0,0,0,0],"id":11,"left_children":[1,3,5,7,9,11,13,15,17,19,21,23,25,27,29,31,33,35,37,39,41,43,45,47,49,51,53,55,57,59,61,-1,-1,-1,-1,-1,-1,-1,-1,-1,-1,-1,-1,-1,-1,-1,-1,-1,-1,-1,-1,-1,-1,-1,-1,-1,-1,-1,-1,-1,-1,-1,-1],"loss_changes":[1.4049855E6,1.3428115E6,1.1840345E6,1.867774E6,1.260293E6,1.9697535E6,3.4704525E6,6.2075425E5,1.6265375E6,1.1117561E6,7.048595E5,6.290902E6,4.089534E6,1.7427708E6,1.4743456E6,5.4512706E5,7.320584E5,1.830237E6,7.226572E5,1.5382508E5,4.498035E5,3.1436956E5,6.046628E5,5.766891E6,4.328593E6,4.958876E6,5.025145E6,3.66147E6,6.3445635E6,5.843661E5,9.08515E5,0E0,0E0,0E0,0E0,0E0,0E0,0E0,0E0,0E0,0E0,0E0,0E0,0E0,0E0,0E0,0E0,0E0,0E0,0E0,0E0,0E0,0E0,0E0,0E0,0E0,0E0,0E0,0E0,0E0,0E0,0E0,0E0],"parents":[2147483647,0,0,1,1,2,2,3,3,4,4,5,5,6,6,7,7,8,8,9,9,10,10,11,11,12,12,13,13,14,14,15,15,16,16,17,17,18,18,19,19,20,20,21,21,22,22,23,23,24,24,25,25,26,26,27,27,28,28,29,29,30,30],"right_children":[2,4,6,8,10,12,14,16,18,20,22,24,26,28,30,32,34,36,38,40,42,44,46,48,50,52,54,56,58,60,62,-1,-1,-1,-1,-1,-1,-1,-1,-1,-1,-1,-1,-1,-1,-1,-1,-1,-1,-1,-1,-1,-1,-1,-1,-1,-1,-1,-1,-1,-1,-1,-1],"split_conditions":[-3.19308E-1,1.2270389E-1,9.2337854E-2,-8.0039045E-3,6.6140175E-2,-1.1059134E-2,1.5662134E-1,-2.0168562E-1,1.6056299E-1,-2.526386E-1,2.6777394E-2,0E0,-5.5795684E-2,0E0,-2.3006721E-1,-1.09358355E-1,1.8033347E-1,1.8213233E-1,-2.3497204E-1,-2.1200341E-1,6.004505E-1,-5.1592463E-3,3.1625405E-1,-1.0254022E-2,-1.4353954E-3,-4.0228505E-2,1.2102571E-2,4.4023488E-2,0E0,5.798015E-4,-9.561915E-3,7.5367354E-2,2.0971417E0,-6.232093E-1,2.9325485E-1,-1.8762355E0,1.2083899E-1,-7.747184E-1,1.7404017E0,2.0422904E0,-2.090608E-1,1.8558446E0,-4.886024E0,-1.7730247E-2,-6.308772E-1,5.761225E-1,-6.0573524E-1,-1.6572444E-1,4.5890382E-1,6.6198474E-1,-1.1596686E0,1.4613731E0,-6.0477227E-1,2.4001491E-1,-3.6148036E-1,4.428333E-1,-2.504873E-1,-1.4073676E-1,8.561057E-1,-3.6401072E-1,7.460303E-1,-1.4087998E0,-3.411642E-1],"split_indices":[1,5,0,5,0,5,3,8,4,7,8,4,10,1,8,14,8,0,6,3,10,6,8,0,11,4,6,4,3,1,6,0,0,0,0,0,0,0,0,0,0,0,0,0,0,0,0,0,0,0,0,0,0,0,0,0,0,0,0,0,0,0,0],"split_type":[0,0,0,0,0,0,0,0,0,0,0,0,0,0,0,0,0,0,0,0,0,0,0,0,0,0,0,0,0,0,0,0,0,0,0,0,0,0,0,0,0,0,0,0,0,0,0,0,0,0,0,0,0,0,0,0,0,0,0,0,0,0,0],"sum_hessian":[7.168075E7,3.774526E6,6.790623E7,1.919101E6,1.855425E6,4.9734104E7,1.8172126E7,1.114246E6,8.04855E5,3.26829E5,1.528596E6,2.9430604E7,2.03035E7,1.4172524E7,3.999602E6,1.45122E5,9.69124E5,6.89981E5,1.14874E5,1.51423E5,1.75406E5,9.68163E5,5.60433E5,2.393385E7,5.496753E6,5.760655E6,1.4542845E7,7.625936E6,6.546588E6,5.97956E5,3.401646E6,9.3218E4,5.1904E4,6.38282E5,3.30842E5,5.44641E5,1.4534E5,5.3161E4,6.1713E4,8.01E3,1.43413E5,1.72897E5,2.509E3,3.05364E5,6.62799E5,4.13893E5,1.4654E5,1.9367388E7,4.566463E6,5.148599E6,3.48154E5,3.06735E5,5.45392E6,8.812741E6,5.730104E6,3.682861E6,3.943075E6,2.758748E6,3.78784E6,1.62989E5,4.34967E5,2.12542E5,3.189104E6],"tree_param":{"num_deleted":"0","num_feature":"15","num_nodes":"63","size_leaf_vector":"0"}},{"base_weights":[4.9918853E-3,-1.716389E-1,7.188322E-2,6.9684577E-1,-2.476879E-1,3.2176888E-1,-5.1433917E-2,1.1170043E-1,2.327508E0,-5.921172E-1,3.699995E-2,7.2221226E-1,-3.2528389E-1,-7.297167E-1,5.158947E-2,-1.8068562E-1,6.9166803E-1,2.6865962E0,-5.3233936E-2,2.4342564E-1,-1.2047068E0,7.905949E-1,-4.0014577E-1,1.6297431E-1,9.546043E-1,-1.044596E0,3.1617677E-1,-3.7413466E-1,-1.3310385E0,-2.1832027E-1,3.0549228E-1,3.411164E-1,-2.2362475E-1,5.174539E-1,-4.8912376E-1,1.0155482E0,1.7014107E0,-3.9510325E-1,5.1833105E-1,-2.4228194E-1,3.1117553E-1,7.738454E-2,-1.0242114E0,-4.7918054E-1,8.1648177E-1,-4.1893876E-1,1.34040285E-2,-1.3536055E-1,2.8966746E-1,7.9220676E-1,2.0043932E-1,-8.956732E-1,-2.3077877E-1,1.3447338E0,-1.8511483E-1,-4.1440356E-1,3.596886E-1,2.0727281E-1,-7.6441026E-1,8.492846E-2,-5.2735776E-1,5.8705527E-1,2.5751155E-2],"categories":[],"categories_nodes":[],"categories_segments":[],"categories_sizes":[],"default_left":[0,0,0,0,0,0,0,0,0,0,0,0,0,0,0,0,0,0,0,0,0,0,0,0,0,0,0,0,0,0,0,0,0,0,0,0,0,0,0,0,0,0,0,0,0,0,0,0,0,0,0,0,0,0,0,0,0,0,0,0,0,0,0],"id":12,"left_children":[1,3,5,7,9,11,13,15,17,19,21,23,25,27,29,31,33,35,37,39,41,43,45,47,49,51,53,55,57,59,61,-1,-1,-1,-1,-1,-1,-1,-1,-1,-1,-1,-1,-1,-1,-1,-1,-1,-1,-1,-1,-1,-1,-1,-1,-1,-1,-1,-1,-1,-1,-1,-1],"loss_changes":[8.4691306E5,1.3004382E6,1.6021211E6,1.5126475E6,1.7752019E6,4.4513315E6,2.4326165E6,1.9783498E5,3.5789475E5,4.1932858E6,3.2652135E6,1.3791585E6,3.0302972E6,9.8149525E5,2.0711079E6,1.784127E5,2.2413045E5,1.7077925E5,4.4072883E4,9.5599694E5,5.4218115E6,5.360899E6,1.1723495E6,5.625358E5,2.614414E6,1.3478908E6,5.6553835E6,1.4341772E6,5.888995E5,4.7560875E6,3.435617E6,0E0,0E0,0E0,0E0,0E0,0E0,0E0,0E0,0E0,0E0,0E0,0E0,0E0,0E0,0E0,0E0,0E0,0E0,0E0,0E0,0E0,0E0,0E0,0E0,0E0,0E0,0E0,0E0,0E0,0E0,0E0,0E0],"parents":[2147483647,0,0,1,1,2,2,3,3,4,4,5,5,6,6,7,7,8,8,9,9,10,10,11,11,12,12,13,13,14,14,15,15,16,16,17,17,18,18,19,19,20,20,21,21,22,22,23,23,24,24,25,25,26,26,27,27,28,28,29,29,30,30],"right_children":[2,4,6,8,10,12,14,16,18,20,22,24,26,28,30,32,34,36,38,40,42,44,46,48,50,52,54,56,58,60,62,-1,-1,-1,-1,-1,-1,-1,-1,-1,-1,-1,-1,-1,-1,-1,-1,-1,-1,-1,-1,-1,-1,-1,-1,-1,-1,-1,-1,-1,-1,-1,-1],"split_conditions":[-8.329166E-2,-2.4488816E-1,1.3082867E-3,2.7717096E-1,3.4743328E-2,5.798015E-4,0E0,-2.3235469E-1,6.004505E-1,-1.4936632E-2,3.600657E-3,-9.0241246E-2,-1.0264574E-2,2.7550273E-2,-2.079735E-3,-4.6580625E-1,2.2090895E-2,-2.1397372E-1,-6.518941E-2,-2.3727697E-1,-9.753119E-2,-2.2501665E-1,1.934079E-1,4.2311386E-3,0E0,-5.44504E-2,-3.9172042E-2,-6.5645254E-3,2.2090895E-2,-5.549616E-2,1.0005742E-2,3.411164E-1,-2.2362475E-1,5.174539E-1,-4.8912376E-1,1.0155482E0,1.7014107E0,-3.9510325E-1,5.1833105E-1,-2.4228194E-1,3.1117553E-1,7.738454E-2,-1.0242114E0,-4.7918054E-1,8.1648177E-1,-4.1893876E-1,1.34040285E-2,-1.3536055E-1,2.8966746E-1,7.9220676E-1,2.0043932E-1,-8.956732E-1,-2.3077877E-1,1.3447338E0,-1.8511483E-1,-4.1440356E-1,3.596886E-1,2.0727281E-1,-7.6441026E-1,8.492846E-2,-5.2735776E-1,5.8705527E-1,2.5751155E-2],"split_indices":[1,5,2,8,5,1,1,3,10,10,6,2,14,6,6,5,3,0,6,2,0,7,0,14,4,2,7,7,3,0,0,0,0,0,0,0,0,0,0,0,0,0,0,0,0,0,0,0,0,0,0,0,0,0,0,0,0,0,0,0,0,0,0],"split_type":[0,0,0,0,0,0,0,0,0,0,0,0,0,0,0,0,0,0,0,0,0,0,0,0,0,0,0,0,0,0,0,0,0,0,0,0,0,0,0,0,0,0,0,0,0,0,0,0,0,0,0,0,0,0,0,0,0,0,0,0,0,0,0],"sum_hessian":[7.168075E7,1.9689468E7,5.199129E7,1.585294E6,1.8104172E7,1.7179444E7,3.4811844E7,1.166654E6,4.1864E5,8.192493E6,9.91168E6,1.0611978E7,6.567465E6,4.590305E6,3.022154E7,7.75628E5,3.91026E5,3.63772E5,5.4868E4,3.465592E6,4.726901E6,3.638784E6,6.272896E6,3.115268E6,7.49671E6,3.095866E6,3.471599E6,2.884565E6,1.70574E6,1.4649008E7,1.5572532E7,1.83052E5,5.92576E5,3.24357E5,6.6669E4,1.8994E5,1.73832E5,3.2734E4,2.2134E4,1.186361E6,2.279231E6,1.810175E6,2.916726E6,1.182869E6,2.455915E6,3.097353E6,3.175543E6,1.52587E6,1.589398E6,3.507391E6,3.989319E6,1.357364E6,1.738502E6,7.78811E5,2.692788E6,2.037423E6,8.47142E5,1.73598E5,1.532142E6,1.000542E7,4.643588E6,3.523283E6,1.2049249E7],"tree_param":{"num_deleted":"0","num_feature":"15","num_nodes":"63","size_leaf_vector":"0"}},{"base_weights":[2.4959191E-3,5.668435E-2,-2.2048973E-1,-3.7237E-2,2.2201523E-1,-5.429635E-1,3.1911388E-1,-2.5726286E-1,5.069203E-1,7.0183706E-1,-1.7344753E-1,-7.038165E-1,7.7613974E-1,9.683299E-1,-2.9179534E-1,2.2570486E-1,-5.54752E-1,5.1017464E-3,2.054644E0,2.082439E-1,1.6573266E0,3.278471E-1,-7.246219E-1,-1.5479454E-1,-1.4689149E0,1.2834241E0,-6.2003106E-1,-3.5941087E-2,1.7693412E0,2.5180224E-1,-6.019955E-1,4.873233E-2,1.3168712E0,-9.3054995E-2,-6.144775E-1,1.3164476E-1,-1.1676812E0,1.3250566E0,-9.4033855E-1,-1.22723594E-1,5.649144E-1,1.5800092E0,6.3523144E-1,-2.8508628E-2,8.0798763E-1,-1.237078E0,-1.3810879E-1,-2.0504493E-1,1.9066356E0,-1.04714364E-1,-9.8889947E-1,1.6953717E0,3.545775E-1,-1.5796863E0,7.220092E-1,1.2929721E0,-2.1132176E-1,-1.6381199E0,1.0662665E0,-4.1001734E-1,6.8875265E-1,-1.9006957E0,-2.7060565E-1],"categories":[],"categories_nodes":[],"categories_segments":[],"categories_sizes":[],"default_left":[0,0,0,0,0,0,0,0,0,0,0,0,0,0,0,0,0,0,0,0,0,0,0,0,0,0,0,0,0,0,0,0,0,0,0,0,0,0,0,0,0,0,0,0,0,0,0,0,0,0,0,0,0,0,0,0,0,0,0,0,0,0,0],"id":13,"left_children":[1,3,5,7,9,11,13,15,17,19,21,23,25,27,29,31,33,35,37,39,41,43,45,47,49,51,53,55,57,59,61,-1,-1,-1,-1,-1,-1,-1,-1,-1,-1,-1,-1,-1,-1,-1,-1,-1,-1,-1,-1,-1,-1,-1,-1,-1,-1,-1,-1,-1,-1,-1,-1],"loss_changes":[8.661359E5,8.954579E5,2.438517E6,4.40308E6,3.9641888E6,1.8612E6,2.0790778E6,3.7624845E6,8.223844E6,4.4516405E6,3.164328E6,3.284143E6,6.752368E5,2.0443592E6,4.554074E5,3.0824428E6,4.0276355E6,4.8318015E6,6.075249E6,2.6022768E6,1.86908E6,2.9733495E6,4.279325E6,4.6112555E6,2.093543E6,8.4626475E5,1.3317365E6,1.14328E6,2.590729E6,1.1839154E6,3.3439444E5,0E0,0E0,0E0,0E0,0E0,0E0,0E0,0E0,0E0,0E0,0E0,0E0,0E0,0E0,0E0,0E0,0E0,0E0,0E0,0E0,0E0,0E0,0E0,0E0,0E0,0E0,0E0,0E0,0E0,0E0,0E0,0E0],"parents":[2147483647,0,0,1,1,2,2,3,3,4,4,5,5,6,6,7,7,8,8,9,9,10,10,11,11,12,12,13,13,14,14,15,15,16,16,17,17,18,18,19,19,20,20,21,21,22,22,23,23,24,24,25,25,26,26,27,27,28,28,29,29,30,30],"right_children":[2,4,6,8,10,12,14,16,18,20,22,24,26,28,30,32,34,36,38,40,42,44,46,48,50,52,54,56,58,60,62,-1,-1,-1,-1,-1,-1,-1,-1,-1,-1,-1,-1,-1,-1,-1,-1,-1,-1,-1,-1,-1,-1,-1,-1,-1,-1,-1,-1,-1,-1,-1,-1],"split_conditions":[1.3397342E-1,6.1811343E-2,7.345804E-2,4.5670997E-2,5.2373942E-2,2.0122227E-1,6.4724095E-2,-1.04528554E-1,7.5317696E-2,0E0,4.7247574E-2,-3.7536796E-2,5.4777972E-3,-1.2630187E-1,3.8423266E-2,-6.0060494E-2,5.0154325E-2,9.195548E-3,3.1741014E-1,-6.5645254E-3,-1.1815972E-1,-2.9708313E-2,1.1285659E-1,3.7584264E-2,-1.6310273E-1,9.2337854E-2,-2.079735E-3,2.6777394E-2,-2.9374802E-1,6.306032E-3,6.306032E-3,4.873233E-2,1.3168712E0,-9.3054995E-2,-6.144775E-1,1.3164476E-1,-1.1676812E0,1.3250566E0,-9.4033855E-1,-1.22723594E-1,5.649144E-1,1.5800092E0,6.3523144E-1,-2.8508628E-2,8.0798763E-1,-1.237078E0,-1.3810879E-1,-2.0504493E-1,1.9066356E0,-1.04714364E-1,-9.8889947E-1,1.6953717E0,3.545775E-1,-1.5796863E0,7.220092E-1,1.2929721E0,-2.1132176E-1,-1.6381199E0,1.0662665E0,-4.1001734E-1,6.8875265E-1,-1.9006957E0,-2.7060565E-1],"split_indices":[1,0,7,4,7,5,11,0,8,1,4,5,9,4,4,5,10,6,10,7,7,3,0,6,7,0,6,8,10,5,5,0,0,0,0,0,0,0,0,0,0,0,0,0,0,0,0,0,0,0,0,0,0,0,0,0,0,0,0,0,0,0,0],"split_type":[0,0,0,0,0,0,0,0,0,0,0,0,0,0,0,0,0,0,0,0,0,0,0,0,0,0,0,0,0,0,0,0,0,0,0,0,0,0,0,0,0,0,0,0,0,0,0,0,0,0,0,0,0,0,0,0,0,0,0,0,0,0,0],"sum_hessian":[7.168075E7,5.7666936E7,1.4013819E7,3.677548E7,2.0891454E7,8.771727E6,5.242092E6,2.6186976E7,1.0588505E7,9.438978E6,1.1452476E7,7.818349E6,9.53378E5,2.541368E6,2.700724E6,9.981771E6,1.6205206E7,7.995972E6,2.592533E6,6.223831E6,3.215147E6,5.997622E6,5.454854E6,4.551948E6,3.266401E6,6.99296E5,2.54082E5,1.127616E6,1.413752E6,9.81222E5,1.719502E6,9.47707E6,5.04701E5,1.0476724E7,5.728482E6,7.201537E6,7.94435E5,2.251804E6,3.40729E5,4.170646E6,2.053185E6,6.58261E5,2.556886E6,4.617897E6,1.379725E6,1.112851E6,4.342003E6,4.276791E6,2.75157E5,9.39973E5,2.326428E6,1.49755E5,5.49541E5,1.13924E5,1.40158E5,1.44935E5,9.82681E5,9.4931E4,1.318821E6,5.02637E5,4.78585E5,3.2058E4,1.687444E6],"tree_param":{"num_deleted":"0","num_feature":"15","num_nodes":"63","size_leaf_vector":"0"}},{"base_weights":[1.2479866E-3,-1.3780574E0,9.458751E-3,-2.9578352E0,-3.9249694E-1,-8.617398E-3,5.8472735E-1,-3.7015877E0,1.2834867E0,-4.265261E0,-9.186206E-2,-6.53344E-1,7.0771254E-3,-3.494347E-1,7.731191E-1,-6.661391E-1,-5.6394477E0,8.96323E0,6.5248E-1,6.490124E-2,-1.2864443E1,-7.141899E-1,1.1995645E0,5.2329725E-1,-1.1985466E0,1.1595429E-1,-9.1745704E-2,-1.7952383E0,9.2512274E-1,9.825789E-1,-7.604268E-1,-2.2782208E-1,-5.902346E0,-4.5327163E0,-1.8012419E0,9.733297E-1,6.1785717E0,-1.0240378E0,7.284266E-1,4.765492E-1,-6.8589634E-1,-7.462256E0,-2.400934E0,1.3700588E-1,-6.4910465E-1,9.172157E-1,-1.594561E-1,1.5135148E0,1.1882085E-1,-7.847629E-1,1.8167219E-1,-2.9694058E-2,1.3612661E-1,-3.0931786E-1,9.430231E-3,-1.613207E-1,-1.2772273E0,1.2740616E0,2.276702E-2,1.7243454E-1,7.57314E-1,3.892464E-1,-8.1370616E-1],"categories":[],"categories_nodes":[],"categories_segments":[],"categories_sizes":[],"default_left":[0,0,0,0,0,0,0,0,0,0,0,0,0,0,0,0,0,0,0,0,0,0,0,0,0,0,0,0,0,0,0,0,0,0,0,0,0,0,0,0,0,0,0,0,0,0,0,0,0,0,0,0,0,0,0,0,0,0,0,0,0,0,0],"id":14,"left_children":[1,3,5,7,9,11,13,15,17,19,21,23,25,27,29,31,33,35,37,39,41,43,45,47,49,51,53,55,57,59,61,-1,-1,-1,-1,-1,-1,-1,-1,-1,-1,-1,-1,-1,-1,-1,-1,-1,-1,-1,-1,-1,-1,-1,-1,-1,-1,-1,-1,-1,-1,-1,-1],"loss_changes":[8.1179544E5,6.6042975E5,7.4097156E5,5.140675E5,3.0413138E5,6.9905656E5,3.820395E5,8.155675E5,1.1781906E5,7.00668E5,1.9481627E5,1.0532175E6,7.256668E5,6.713503E5,5.802789E5,1.2666451E5,5.9052475E5,4.393592E4,4.881137E4,1.5972568E4,1.0460106E5,9.440481E4,7.599128E4,3.7180072E5,6.5007975E5,8.7944125E5,2.0603585E6,1.9083619E5,2.7641506E5,5.392766E5,2.8964862E5,0E0,0E0,0E0,0E0,0E0,0E0,0E0,0E0,0E0,0E0,0E0,0E0,0E0,0E0,0E0,0E0,0E0,0E0,0E0,0E0,0E0,0E0,0E0,0E0,0E0,0E0,0E0,0E0,0E0,0E0,0E0,0E0],"parents":[2147483647,0,0,1,1,2,2,3,3,4,4,5,5,6,6,7,7,8,8,9,9,10,10,11,11,12,12,13,13,14,14,15,15,16,16,17,17,18,18,19,19,20,20,21,21,22,22,23,23,24,24,25,25,26,26,27,27,28,28,29,29,30,30],"right_children":[2,4,6,8,10,12,14,16,18,20,22,24,26,28,30,32,34,36,38,40,42,44,46,48,50,52,54,56,58,60,62,-1,-1,-1,-1,-1,-1,-1,-1,-1,-1,-1,-1,-1,-1,-1,-1,-1,-1,-1,-1,-1,-1,-1,-1,-1,-1,-1,-1,-1,-1,-1,-1],"split_conditions":[-7.9797524E-1,1.01974316E-1,3.9932257E-1,3.835222E-1,-8.0039045E-3,-4.0950298E-1,-6.5645254E-3,-6.731024E-4,-1.3919461E-1,6.067292E-4,2.975359E-1,-1.7013483E-1,1.3082867E-3,-9.0241246E-2,3.3256918E-1,6.067292E-4,6.306032E-3,7.391778E-2,-1.3424979E-1,-3.1351137E-1,3.5193953E-1,-6.4655846E-1,2.5836542E-1,-7.9071754E-1,1.8402494E-1,1.4024093E-3,0E0,-3.3196944E-1,-3.6116764E-1,-3.8484443E-2,1.7977273E-1,-2.2782208E-1,-5.902346E0,-4.5327163E0,-1.8012419E0,9.733297E-1,6.1785717E0,-1.0240378E0,7.284266E-1,4.765492E-1,-6.8589634E-1,-7.462256E0,-2.400934E0,1.3700588E-1,-6.4910465E-1,9.172157E-1,-1.594561E-1,1.5135148E0,1.1882085E-1,-7.847629E-1,1.8167219E-1,-2.9694058E-2,1.3612661E-1,-3.0931786E-1,9.430231E-3,-1.613207E-1,-1.2772273E0,1.2740616E0,2.276702E-2,1.7243454E-1,7.57314E-1,3.892464E-1,-8.1370616E-1],"split_indices":[10,4,11,7,5,1,7,6,13,7,2,7,2,2,3,7,5,3,3,7,7,8,0,2,4,11,1,3,8,10,7,0,0,0,0,0,0,0,0,0,0,0,0,0,0,0,0,0,0,0,0,0,0,0,0,0,0,0,0,0,0,0,0],"split_type":[0,0,0,0,0,0,0,0,0,0,0,0,0,0,0,0,0,0,0,0,0,0,0,0,0,0,0,0,0,0,0,0,0,0,0,0,0,0,0,0,0,0,0,0,0,0,0,0,0,0,0,0,0,0,0,0,0,0,0,0,0,0,0],"sum_hessian":[7.168075E7,4.24177E5,7.125658E7,1.62961E5,2.61216E5,6.908576E7,2.170819E6,1.38648E5,2.4313E4,1.8816E4,2.424E5,1.641782E6,6.7443976E7,3.64316E5,1.806503E6,5.4025E4,8.4623E4,1.845E3,2.2468E4,1.2515E4,6.301E3,1.63575E5,7.8825E4,5.19852E5,1.12193E6,3.2089576E7,3.53544E7,1.70691E5,1.93625E5,1.589413E6,2.1709E5,5.3024E4,1.001E3,3.1552E4,5.3071E4,6.02E2,1.243E3,5.156E3,1.7312E4,7.734E3,4.781E3,5.018E3,1.283E3,6.0762E4,1.02813E5,5.5585E4,2.324E4,5.3236E4,4.66616E5,9.06596E5,2.15334E5,1.5123465E7,1.696611E7,6.13402E6,2.9220382E7,5.8066E4,1.12625E5,6.8053E4,1.25572E5,7.22924E5,8.66489E5,7.823E4,1.3886E5],"tree_param":{"num_deleted":"0","num_feature":"15","num_nodes":"63","size_leaf_vector":"0"}},{"base_weights":[6.237095E-4,-2.158087E-1,4.1313726E-2,5.534407E-1,-5.608221E-1,1.3477309E-1,-5.6700498E-2,-2.8659418E-1,1.2540925E0,-1.0085287E0,4.284314E-2,2.092248E-1,-6.224105E-1,-1.6210297E-1,6.16252E-1,8.258454E-2,-1.9341528E0,2.121696E0,8.884608E-2,-1.4850609E-1,-1.9931152E0,-9.2409766E-1,6.480058E-1,4.9511902E-2,5.759201E-1,8.772963E-1,-9.325087E-1,-2.3059852E-1,5.9685725E-1,1.9867682E0,-1.6095756E-1,-1.2492922E-1,3.661646E-1,-1.1752328E0,4.2569542E-1,1.2171593E0,-1.3232713E0,5.193233E-1,-5.5204708E-2,-7.490439E-1,3.0240765E-1,-1.2448769E0,2.3221193E-1,-8.304426E-1,-2.4533463E-1,1.1626179E0,2.5615735E-2,1.7526962E-1,-2.1635044E-1,8.7812907E-1,1.0511192E-1,-6.989363E-1,6.8182397E-1,-6.841523E-1,2.0224245E-1,-2.6555074E-2,-2.8404072E-1,8.4998333E-1,1.5890622E-1,-4.0238693E-1,1.3982757E0,-1.8856712E-1,3.823472E-1],"categories":[],"categories_nodes":[],"categories_segments":[],"categories_sizes":[],"default_left":[0,0,0,0,0,0,0,0,0,0,0,0,0,0,0,0,0,0,0,0,0,0,0,0,0,0,0,0,0,0,0,0,0,0,0,0,0,0,0,0,0,0,0,0,0,0,0,0,0,0,0,0,0,0,0,0,0,0,0,0,0,0,0],"id":15,"left_children":[1,3,5,7,9,11,13,15,17,19,21,23,25,27,29,31,33,35,37,39,41,43,45,47,49,51,53,55,57,59,61,-1,-1,-1,-1,-1,-1,-1,-1,-1,-1,-1,-1,-1,-1,-1,-1,-1,-1,-1,-1,-1,-1,-1,-1,-1,-1,-1,-1,-1,-1,-1,-1],"loss_changes":[6.312665E5,3.010604E6,5.527094E5,2.067276E6,2.116507E6,1.7411692E6,2.0889791E6,9.715489E5,1.9360698E6,3.8074445E6,1.9513692E6,1.6469436E6,1.2859165E6,1.3236921E6,4.2480965E6,2.8186366E5,3.390835E5,1.636343E6,1.5468261E5,2.4400528E6,2.5586835E6,4.0993712E5,2.0530002E6,2.8435495E6,3.6827955E6,5.242524E5,1.3350399E6,1.398948E6,6.488068E5,3.2624555E6,5.0925388E5,0E0,0E0,0E0,0E0,0E0,0E0,0E0,0E0,0E0,0E0,0E0,0E0,0E0,0E0,0E0,0E0,0E0,0E0,0E0,0E0,0E0,0E0,0E0,0E0,0E0,0E0,0E0,0E0,0E0,0E0,0E0,0E0],"parents":[2147483647,0,0,1,1,2,2,3,3,4,4,5,5,6,6,7,7,8,8,9,9,10,10,11,11,12,12,13,13,14,14,15,15,16,16,17,17,18,18,19,19,20,20,21,21,22,22,23,23,24,24,25,25,26,26,27,27,28,28,29,29,30,30],"right_children":[2,4,6,8,10,12,14,16,18,20,22,24,26,28,30,32,34,36,38,40,42,44,46,48,50,52,54,56,58,60,62,-1,-1,-1,-1,-1,-1,-1,-1,-1,-1,-1,-1,-1,-1,-1,-1,-1,-1,-1,-1,-1,-1,-1,-1,-1,-1,-1,-1,-1,-1,-1,-1],"split_conditions":[-1.6874035E-1,-8.08559E-2,1.6688788E-2,-7.4217886E-2,1.15797445E-1,2.3075157E-1,1.5662134E-1,-1.6813894E-1,2.1210231E-1,4.3781158E-2,0E0,1.6979499E-2,-8.071116E-2,2.7438852E-1,4.8300445E-2,-6.062714E-2,4.9506865E-2,3.298592E-1,1.1616615E-1,-6.388353E-2,1.2452108E-1,-9.0241246E-2,-1.00395896E-1,-7.8189924E-2,-1.2341462E-1,-9.0241246E-2,-9.561915E-3,3.617097E-2,-2.8443462E-1,-1.48528E-1,2.8728095E-1,-1.2492922E-1,3.661646E-1,-1.1752328E0,4.2569542E-1,1.2171593E0,-1.3232713E0,5.193233E-1,-5.5204708E-2,-7.490439E-1,3.0240765E-1,-1.2448769E0,2.3221193E-1,-8.304426E-1,-2.4533463E-1,1.1626179E0,2.5615735E-2,1.7526962E-1,-2.1635044E-1,8.7812907E-1,1.0511192E-1,-6.989363E-1,6.8182397E-1,-6.841523E-1,2.0224245E-1,-2.6555074E-2,-2.8404072E-1,8.4998333E-1,1.5890622E-1,-4.0238693E-1,1.3982757E0,-1.8856712E-1,3.823472E-1],"split_indices":[10,4,7,11,4,4,3,5,6,1,1,14,10,13,14,3,7,1,7,7,7,2,6,0,7,2,6,5,3,0,10,0,0,0,0,0,0,0,0,0,0,0,0,0,0,0,0,0,0,0,0,0,0,0,0,0,0,0,0,0,0,0,0],"split_type":[0,0,0,0,0,0,0,0,0,0,0,0,0,0,0,0,0,0,0,0,0,0,0,0,0,0,0,0,0,0,0,0,0,0,0,0,0,0,0,0,0,0,0,0,0,0,0,0,0,0,0,0,0,0,0,0,0,0,0,0,0,0,0],"sum_hessian":[7.168075E7,1.1343588E7,6.033717E7,3.512358E6,7.83123E6,3.0886246E7,2.945092E7,1.597301E6,1.915057E6,4.49645E6,3.33478E6,2.8121172E7,2.765074E6,2.5462768E7,3.988154E6,1.304904E6,2.92397E5,1.097726E6,8.17331E5,2.400045E6,2.096405E6,1.283684E6,2.051096E6,1.9589176E7,8.531997E6,4.73777E5,2.291297E6,2.3354998E7,2.107769E6,1.443215E6,2.544939E6,8.63231E5,4.41673E5,2.54379E5,3.8018E4,1.030184E6,6.7542E4,1.41731E5,6.756E5,8.59766E5,1.540279E6,1.74397E6,3.52435E5,4.75454E5,8.0823E5,5.38275E5,1.512821E6,1.2060351E7,7.528824E6,2.018143E6,6.513854E6,8.344E4,3.90337E5,1.728039E6,5.63258E5,1.5305539E7,8.049459E6,4.25539E5,1.68223E6,3.24517E5,1.118698E6,2.063119E6,4.8182E5],"tree_param":{"num_deleted":"0","num_feature":"15","num_nodes":"63","size_leaf_vector":"0"}},{"base_weights":[3.1188587E-4,-1.1773909E-1,6.799524E-2,2.5080654E-1,-3.6229497E-1,-1.4446664E-1,2.258154E-1,-3.7875503E-1,9.8316205E-1,2.0252101E-1,-6.2432545E-1,1.6965516E-1,-4.777076E-1,6.3244516E-1,-5.6422624E-4,1.2403342E-2,-1.4889367E0,2.0018606E0,-2.1374904E-1,-4.428887E-1,6.3639843E-1,-1.8420352E0,-2.2321425E-1,-3.3189908E-1,8.943812E-1,8.497702E-1,-6.845945E-1,-5.286321E-1,1.0096954E0,-1.5388309E0,1.0092633E-1,-3.1766525E-1,4.1101167E-1,2.7800032E-1,-8.9919275E-1,-2.8616288E-1,1.3001442E0,-2.4652003E-1,1.3083602E0,-5.333024E-1,1.2461809E-2,2.0088722E-1,7.47548E-1,-2.9658598E-1,-1.558061E0,-6.126218E-1,4.4182815E-2,-5.330024E-1,1.3524872E-1,7.1223456E-1,2.1252816E-3,-3.060469E-1,7.337118E-1,1.6556723E-1,-4.4612783E-1,1.6760359E0,-3.7631392E-1,5.8100104E-1,-1.2914681E0,-1.4524995E0,-2.859485E-1,4.1713145E-1,6.3245175E-3],"categories":[],"categories_nodes":[],"categories_segments":[],"categories_sizes":[],"default_left":[0,0,0,0,0,0,0,0,0,0,0,0,0,0,0,0,0,0,0,0,0,0,0,0,0,0,0,0,0,0,0,0,0,0,0,0,0,0,0,0,0,0,0,0,0,0,0,0,0,0,0,0,0,0,0,0,0,0,0,0,0,0,0],"id":16,"left_children":[1,3,5,7,9,11,13,15,17,19,21,23,25,27,29,31,33,35,37,39,41,43,45,47,49,51,53,55,57,59,61,-1,-1,-1,-1,-1,-1,-1,-1,-1,-1,-1,-1,-1,-1,-1,-1,-1,-1,-1,-1,-1,-1,-1,-1,-1,-1,-1,-1,-1,-1,-1,-1],"loss_changes":[5.727354E5,2.3542992E6,1.5276486E6,4.8039475E6,2.32386E6,2.032667E6,2.406383E6,2.4330785E6,5.872637E6,1.3934162E6,5.238921E6,3.633393E6,2.5877398E6,4.0949282E6,2.62165E6,2.172713E6,9.2374525E5,4.008171E6,1.7506285E6,5.8366956E5,5.9949975E5,4.22876E6,2.519E6,2.6124368E6,1.9290802E6,1.1471412E6,1.7194608E6,1.992908E6,3.861E6,1.3729788E6,1.01981606E6,0E0,0E0,0E0,0E0,0E0,0E0,0E0,0E0,0E0,0E0,0E0,0E0,0E0,0E0,0E0,0E0,0E0,0E0,0E0,0E0,0E0,0E0,0E0,0E0,0E0,0E0,0E0,0E0,0E0,0E0,0E0,0E0],"parents":[2147483647,0,0,1,1,2,2,3,3,4,4,5,5,6,6,7,7,8,8,9,9,10,10,11,11,12,12,13,13,14,14,15,15,16,16,17,17,18,18,19,19,20,20,21,21,22,22,23,23,24,24,25,25,26,26,27,27,28,28,29,29,30,30],"right_children":[2,4,6,8,10,12,14,16,18,20,22,24,26,28,30,32,34,36,38,40,42,44,46,48,50,52,54,56,58,60,62,-1,-1,-1,-1,-1,-1,-1,-1,-1,-1,-1,-1,-1,-1,-1,-1,-1,-1,-1,-1,-1,-1,-1,-1,-1,-1,-1,-1,-1,-1,-1,-1],"split_conditions":[-4.393431E-2,-2.8896566E-2,-1.6337603E-2,-3.1853233E-2,-8.498147E-2,5.798015E-4,0E0,-1.136594E-1,1.2845598E-1,0E0,3.6806826E-2,8.823483E-2,-9.201295E-3,-2.0545882E-1,6.306032E-3,-8.6545795E-2,-1.9677503E-1,-3.6585785E-2,-2.9708313E-2,-2.722205E-1,2.3075157E-1,2.7882462E-2,-2.9708313E-2,-1.4606848E-1,-1.13002956E-1,-1.6396393E-1,-3.1228504E-1,-2.0290894E-2,3.554953E-1,3.4646235E-2,1.5710657E-2,-3.1766525E-1,4.1101167E-1,2.7800032E-1,-8.9919275E-1,-2.8616288E-1,1.3001442E0,-2.4652003E-1,1.3083602E0,-5.333024E-1,1.2461809E-2,2.0088722E-1,7.47548E-1,-2.9658598E-1,-1.558061E0,-6.126218E-1,4.4182815E-2,-5.330024E-1,1.3524872E-1,7.1223456E-1,2.1252816E-3,-3.060469E-1,7.337118E-1,1.6556723E-1,-4.4612783E-1,1.6760359E0,-3.7631392E-1,5.8100104E-1,-1.2914681E0,-1.4524995E0,-2.859485E-1,4.1713145E-1,6.3245175E-3],"split_indices":[9,4,4,14,6,1,12,5,6,1,0,7,9,6,5,3,6,13,3,8,4,1,3,2,4,4,0,3,10,6,4,0,0,0,0,0,0,0,0,0,0,0,0,0,0,0,0,0,0,0,0,0,0,0,0,0,0,0,0,0,0,0,0],"split_type":[0,0,0,0,0,0,0,0,0,0,0,0,0,0,0,0,0,0,0,0,0,0,0,0,0,0,0,0,0,0,0,0,0,0,0,0,0,0,0,0,0,0,0,0,0,0,0,0,0,0,0,0,0,0,0,0,0,0,0,0,0,0,0],"sum_hessian":[7.168075E7,2.6121148E7,4.555961E7,1.0419287E7,1.5701862E7,1.9418236E7,2.6141368E7,5.602854E6,4.816433E6,4.975974E6,1.0725888E7,9.995867E6,9.42237E6,9.348792E6,1.6792576E7,4.14309E6,1.459764E6,2.601921E6,2.214512E6,2.00036E6,2.975614E6,2.657658E6,8.06823E6,5.907512E6,4.088355E6,1.27047E6,8.1519E6,2.292642E6,7.05615E6,1.039353E6,1.5753224E7,2.301657E6,1.841433E6,1.91864E5,1.2679E6,4.90782E5,2.111139E6,2.015625E6,1.98887E5,8.57323E5,1.143037E6,2.337056E6,6.38558E5,1.342115E6,1.315543E6,1.913733E6,6.154497E6,2.66267E6,3.244842E6,2.562401E6,1.525954E6,3.77352E5,8.93118E5,1.383723E6,6.768177E6,1.2511E5,2.167532E6,6.769177E6,2.86973E5,4.3075E5,6.08603E5,1.692585E6,1.4060639E7],"tree_param":{"num_deleted":"0","num_feature":"15","num_nodes":"63","size_leaf_vector":"0"}},{"base_weights":[1.557522E-4,1.7896427E-2,-4.8368362E-1,-1.07931435E-1,8.203743E-2,-1.0245913E0,1.5545901E0,1.5519187E-1,-2.6652926E-1,1.2839639E-1,-3.6641493E-1,-1.525043E-1,-1.6288617E0,2.9134505E0,-5.851705E-1,-1.6099213E-1,1.1324137E0,8.428703E-2,-5.3509283E-1,-3.7049543E-2,2.7871558E-1,2.2693946E0,-4.7481957E-1,1.0629405E-1,-5.294707E-1,8.5097617E-1,-2.1077607E0,1.9880917E0,5.2232246E0,1.6920625E-1,-2.307087E0,5.3505667E-2,-3.563063E-1,3.758066E-1,1.6917901E0,3.7027693E-1,-1.9772841E-1,-5.562732E-1,1.6928332E-1,2.2149898E-1,-1.9101791E-1,-1.742154E-1,1.9224665E-1,1.0591512E0,1.8838581E0,-5.2940184E-1,-1.8023023E-2,-2.0382623E-1,3.48531E-1,-1.3641776E-2,-1.0042967E0,-2.8539162E-2,1.8754617E0,-1.9901553E0,-5.015739E-1,1.2198199E0,-6.2314206E-1,1.5739794E0,3.8831692E0,6.930171E-1,-1.9424516E-1,-2.443159E-1,-1.3594514E0],"categories":[],"categories_nodes":[],"categories_segments":[],"categories_sizes":[],"default_left":[0,0,0,0,0,0,0,0,0,0,0,0,0,0,0,0,0,0,0,0,0,0,0,0,0,0,0,0,0,0,0,0,0,0,0,0,0,0,0,0,0,0,0,0,0,0,0,0,0,0,0,0,0,0,0,0,0,0,0,0,0,0,0],"id":17,"left_children":[1,3,5,7,9,11,13,15,17,19,21,23,25,27,29,31,33,35,37,39,41,43,45,47,49,51,53,55,57,59,61,-1,-1,-1,-1,-1,-1,-1,-1,-1,-1,-1,-1,-1,-1,-1,-1,-1,-1,-1,-1,-1,-1,-1,-1,-1,-1,-1,-1,-1,-1,-1,-1],"loss_changes":[6.1528156E5,5.580538E5,2.795235E6,9.742568E5,9.52156E5,1.055855E6,1.546018E6,2.7128258E6,1.3723906E6,1.03229806E6,1.2260678E6,8.000516E4,1.4055592E6,6.950495E5,2.6825925E5,9.8068156E5,1.839918E6,1.9885239E6,4.1622942E6,3.2724342E6,1.4427455E6,3.8365375E4,1.0560628E6,1.4763733E5,2.4796392E5,5.0445556E5,2.051829E6,3.39095E5,4.9088025E5,9.7453195E4,4.711228E4,0E0,0E0,0E0,0E0,0E0,0E0,0E0,0E0,0E0,0E0,0E0,0E0,0E0,0E0,0E0,0E0,0E0,0E0,0E0,0E0,0E0,0E0,0E0,0E0,0E0,0E0,0E0,0E0,0E0,0E0,0E0,0E0],"parents":[2147483647,0,0,1,1,2,2,3,3,4,4,5,5,6,6,7,7,8,8,9,9,10,10,11,11,12,12,13,13,14,14,15,15,16,16,17,17,18,18,19,19,20,20,21,21,22,22,23,23,24,24,25,25,26,26,27,27,28,28,29,29,30,30],"right_children":[2,4,6,8,10,12,14,16,18,20,22,24,26,28,30,32,34,36,38,40,42,44,46,48,50,52,54,56,58,60,62,-1,-1,-1,-1,-1,-1,-1,-1,-1,-1,-1,-1,-1,-1,-1,-1,-1,-1,-1,-1,-1,-1,-1,-1,-1,-1,-1,-1,-1,-1,-1,-1],"split_conditions":[3.7549955E-1,-5.742874E-2,1.9908248E-1,-3.883071E-2,2.1798024E-1,-1.5903501E-1,1.6495298E-1,-2.2353452E-2,-2.7210565E-2,-5.253154E-6,7.5201003E-4,-9.201295E-3,-1.6754034E-1,6.306032E-3,2.8107893E-1,2.2090895E-2,-4.7109957E-4,3.3622384E-2,1.0361468E-1,-2.8010348E-2,-1.4094912E-1,-9.906308E-2,0E0,-1.4467408E-1,-3.1228504E-1,9.106231E-2,6.306032E-3,-3.921218E-2,2.9394138E-1,-4.4105966E-3,2.2687608E-1,5.3505667E-2,-3.563063E-1,3.758066E-1,1.6917901E0,3.7027693E-1,-1.9772841E-1,-5.562732E-1,1.6928332E-1,2.2149898E-1,-1.9101791E-1,-1.742154E-1,1.9224665E-1,1.0591512E0,1.8838581E0,-5.2940184E-1,-1.8023023E-2,-2.0382623E-1,3.48531E-1,-1.3641776E-2,-1.0042967E0,-2.8539162E-2,1.8754617E0,-1.9901553E0,-5.015739E-1,1.2198199E0,-6.2314206E-1,1.5739794E0,3.8831692E0,6.930171E-1,-1.9424516E-1,-2.443159E-1,-1.3594514E0],"split_indices":[1,1,7,6,7,6,0,0,10,10,6,9,4,5,4,3,8,7,6,5,4,5,5,5,0,6,5,5,7,4,0,0,0,0,0,0,0,0,0,0,0,0,0,0,0,0,0,0,0,0,0,0,0,0,0,0,0,0,0,0,0,0,0],"split_type":[0,0,0,0,0,0,0,0,0,0,0,0,0,0,0,0,0,0,0,0,0,0,0,0,0,0,0,0,0,0,0,0,0,0,0,0,0,0,0,0,0,0,0,0,0,0,0,0,0,0,0,0,0,0,0,0,0,0,0,0,0,0,0],"sum_hessian":[7.168075E7,6.914544E7,2.535317E6,2.3346234E7,4.5799204E7,2.003609E6,5.31708E5,8.779883E6,1.4566351E7,4.1508268E7,4.290936E6,8.20074E5,1.183535E6,3.25193E5,2.06515E5,6.633567E6,2.146316E6,6.315981E6,8.25037E6,1.9759904E7,2.1748364E7,1.69504E5,4.121432E6,4.8625E5,3.33824E5,1.91566E5,9.91969E5,2.32178E5,9.3015E4,1.43603E5,6.2912E4,4.464501E6,2.169066E6,1.835782E6,3.10534E5,2.667275E6,3.648706E6,4.967231E6,3.283139E6,8.262566E6,1.1497339E7,3.138786E6,1.8609576E7,1.53979E5,1.5525E4,1.768136E6,2.353296E6,2.60032E5,2.26218E5,2.49213E5,8.4611E4,1.45886E5,4.568E4,3.68048E5,6.23921E5,2.03735E5,2.8443E4,5.122E4,4.1795E4,4.5131E4,9.8472E4,1.1617E4,5.1295E4],"tree_param":{"num_deleted":"0","num_feature":"15","num_nodes":"63","size_leaf_vector":"0"}},{"base_weights":[7.7920784E-5,-9.026153E-3,5.672762E-1,-6.569061E-1,1.5309667E-3,-6.095711E-3,1.1441455E0,6.8576324E-1,-9.111589E-1,6.1525595E-3,-1.1521823E0,-7.7961206E-1,6.232932E-1,3.0324668E-1,2.1149383E0,9.6000195E-1,-9.229557E-1,-2.3693795E0,-5.0441617E-1,4.9472833E-1,-1.999433E-3,-2.2161689E0,2.3951353E-1,-4.0406018E-1,-2.9006279E0,2.18969E0,2.797887E-1,-1.9785053E0,4.4946033E-1,3.026823E0,3.9379367E-1,6.890864E-2,8.2887864E-1,-9.5987684E-1,6.288503E-2,-1.7114879E0,1.2704714E-2,-3.351801E-1,1.3560435E0,4.4819868E-1,5.2897234E-2,-4.1495595E-2,3.191126E-2,-6.5209174E-1,-2.049899E0,-2.2610706E-1,7.8376967E-1,-8.6565757E-1,-7.024003E-3,-2.673634E-1,-2.025721E0,2.1205356E0,9.342307E-1,3.224791E-1,-3.2039446E-1,-1.9865956E0,-5.1557386E-1,4.1562277E-1,-6.492846E-2,1.2097167E0,1.8989959E0,7.056934E-1,-1.6606364E-1],"categories":[],"categories_nodes":[],"categories_segments":[],"categories_sizes":[],"default_left":[0,0,0,0,0,0,0,0,0,0,0,0,0,0,0,0,0,0,0,0,0,0,0,0,0,0,0,0,0,0,0,0,0,0,0,0,0,0,0,0,0,0,0,0,0,0,0,0,0,0,0,0,0,0,0,0,0,0,0,0,0,0,0],"id":18,"left_children":[1,3,5,7,9,11,13,15,17,19,21,23,25,27,29,31,33,35,37,39,41,43,45,47,49,51,53,55,57,59,61,-1,-1,-1,-1,-1,-1,-1,-1,-1,-1,-1,-1,-1,-1,-1,-1,-1,-1,-1,-1,-1,-1,-1,-1,-1,-1,-1,-1,-1,-1,-1,-1],"loss_changes":[3.701462E5,4.8253306E5,3.7454312E5,3.8614797E5,3.7013225E5,2.7648184E5,4.607922E5,7.945393E4,5.640869E5,2.7537647E5,4.1011528E5,2.0294581E5,1.6848138E5,1.0091125E5,4.1119775E5,8.827019E4,2.7420232E4,5.233525E5,3.96922E5,1.772639E5,3.6254025E5,2.6963244E5,1.1023932E5,1.1204799E5,1.0434853E5,3.7102875E4,8.633142E4,3.441643E4,6.2869914E4,8.0209E4,6.702719E4,0E0,0E0,0E0,0E0,0E0,0E0,0E0,0E0,0E0,0E0,0E0,0E0,0E0,0E0,0E0,0E0,0E0,0E0,0E0,0E0,0E0,0E0,0E0,0E0,0E0,0E0,0E0,0E0,0E0,0E0,0E0,0E0],"parents":[2147483647,0,0,1,1,2,2,3,3,4,4,5,5,6,6,7,7,8,8,9,9,10,10,11,11,12,12,13,13,14,14,15,15,16,16,17,17,18,18,19,19,20,20,21,21,22,22,23,23,24,24,25,25,26,26,27,27,28,28,29,29,30,30],"right_children":[2,4,6,8,10,12,14,16,18,20,22,24,26,28,30,32,34,36,38,40,42,44,46,48,50,52,54,56,58,60,62,-1,-1,-1,-1,-1,-1,-1,-1,-1,-1,-1,-1,-1,-1,-1,-1,-1,-1,-1,-1,-1,-1,-1,-1,-1,-1,-1,-1,-1,-1,-1,-1],"split_conditions":[4.996309E-1,-5.062681E-1,4.95455E-3,-1.9896208E-1,7.0997065E-1,2.6777394E-2,5.798015E-4,4.016271E-1,3.3565473E-2,-5.050973E-1,-2.048347E-2,5.798015E-4,3.154102E-1,-3.4358987E-1,5.1300064E-2,1.3062054E-1,-3.4358987E-1,6.734905E-2,4.441558E-1,-2.9708313E-2,-9.561915E-3,-5.2238803E-2,5.743302E-2,-6.388353E-2,-3.7675685E-1,1.7289208E-1,4.4532946E-1,-8.969148E-2,2.4819984E-1,5.9508073E-1,2.854986E-1,6.890864E-2,8.2887864E-1,-9.5987684E-1,6.288503E-2,-1.7114879E0,1.2704714E-2,-3.351801E-1,1.3560435E0,4.4819868E-1,5.2897234E-2,-4.1495595E-2,3.191126E-2,-6.5209174E-1,-2.049899E0,-2.2610706E-1,7.8376967E-1,-8.6565757E-1,-7.024003E-3,-2.673634E-1,-2.025721E0,2.1205356E0,9.342307E-1,3.224791E-1,-3.2039446E-1,-1.9865956E0,-5.1557386E-1,4.1562277E-1,-6.492846E-2,1.2097167E0,1.8989959E0,7.056934E-1,-1.6606364E-1],"split_indices":[0,10,3,3,10,8,1,7,3,0,1,1,7,2,9,6,2,7,7,3,6,4,4,7,8,7,8,8,3,0,8,0,0,0,0,0,0,0,0,0,0,0,0,0,0,0,0,0,0,0,0,0,0,0,0,0,0,0,0,0,0,0,0],"split_type":[0,0,0,0,0,0,0,0,0,0,0,0,0,0,0,0,0,0,0,0,0,0,0,0,0,0,0,0,0,0,0,0,0,0,0,0,0,0,0,0,0,0,0,0,0,0,0,0,0,0,0,0,0,0,0,0,0,0,0,0,0,0,0],"sum_hessian":[7.168075E7,7.054838E7,1.132368E6,1.131144E6,6.941724E7,5.67906E5,5.64462E5,1.80094E5,9.5105E5,6.914028E7,2.76964E5,2.54781E5,3.13125E5,3.02467E5,2.61995E5,1.53865E5,2.6229E4,2.0742E5,7.4363E5,1.134687E6,6.800559E7,1.56962E5,1.20002E5,2.16456E5,3.8325E4,5.6316E4,2.56809E5,1.8214E4,2.84253E5,1.71259E5,9.0736E4,7.0635E4,8.323E4,1.3447E4,1.2782E4,1.44046E5,6.3374E4,7.07148E5,3.6482E4,5.58204E5,5.76483E5,3.0489392E7,3.75162E7,1.05759E5,5.1203E4,7.8904E4,4.1098E4,4.9159E4,1.67297E5,1.2542E4,2.5783E4,7.623E3,4.8693E4,1.83872E5,7.2937E4,5.864E3,1.235E4,1.71337E5,1.12916E5,9.5805E4,7.5454E4,3.7778E4,5.2958E4],"tree_param":{"num_deleted":"0","num_feature":"15","num_nodes":"63","size_leaf_vector":"0"}},{"base_weights":[3.9119517E-5,2.5628913E-2,-1.6113651E-1,5.938457E-2,-2.1636279E-1,-4.1890237E-1,2.978622E-1,-1.3304529E-1,1.386725E-1,1.8358833E-1,-5.9954405E-1,-1.4103921E-2,-7.2243804E-1,1.3474416E0,-1.3363533E-1,-3.526864E-1,5.523112E-2,1.5855259E-1,-7.634242E-1,-1.1438648E-1,1.6555997E0,1.0864235E0,-9.498111E-1,1.9901378E-1,-6.9172555E-1,-9.460868E-1,1.020217E-1,-9.735227E-2,1.702853E0,4.4824675E-1,-3.1014928E-1,4.3336965E-2,-3.5929236E-1,8.221788E-2,-7.123556E-1,3.3483268E-3,1.4316316E-1,4.3551138E-1,-6.81277E-1,2.1417728E-1,-2.8599563E-1,1.5347299E-1,1.3798668E0,-1.5801667E0,6.743472E-1,-1.0653282E0,-1.04255565E-1,-6.860157E-2,8.354182E-1,-1.2165558E0,-2.6703222E-2,-2.1120775E-1,-8.7881845E-1,-3.616419E-1,3.394419E-1,5.299895E-2,-1.9883252E0,1.050078E0,1.0645382E-1,-1.7977333E-1,8.8100487E-1,-6.4047736E-1,-9.322791E-2],"categories":[],"categories_nodes":[],"categories_segments":[],"categories_sizes":[],"default_left":[0,0,0,0,0,0,0,0,0,0,0,0,0,0,0,0,0,0,0,0,0,0,0,0,0,0,0,0,0,0,0,0,0,0,0,0,0,0,0,0,0,0,0,0,0,0,0,0,0,0,0,0,0,0,0,0,0,0,0,0,0,0,0],"id":19,"left_children":[1,3,5,7,9,11,13,15,17,19,21,23,25,27,29,31,33,35,37,39,41,43,45,47,49,51,53,55,57,59,61,-1,-1,-1,-1,-1,-1,-1,-1,-1,-1,-1,-1,-1,-1,-1,-1,-1,-1,-1,-1,-1,-1,-1,-1,-1,-1,-1,-1,-1,-1,-1,-1],"loss_changes":[2.9564375E5,5.0530378E5,1.1620098E6,8.282742E5,1.1605181E6,7.727809E5,1.5996149E6,6.550784E5,6.894777E5,1.6251769E6,2.283816E6,3.8921225E5,6.627421E5,5.283966E5,2.570833E5,1.1754075E6,1.3785134E6,7.2988694E5,8.117821E5,7.653052E5,9.2884125E5,7.4095925E5,2.8029858E6,1.01459225E6,7.167726E5,1.2015602E6,3.6513766E5,1.6026281E5,4.888755E5,6.1824506E5,2.306095E5,0E0,0E0,0E0,0E0,0E0,0E0,0E0,0E0,0E0,0E0,0E0,0E0,0E0,0E0,0E0,0E0,0E0,0E0,0E0,0E0,0E0,0E0,0E0,0E0,0E0,0E0,0E0,0E0,0E0,0E0,0E0,0E0],"parents":[2147483647,0,0,1,1,2,2,3,3,4,4,5,5,6,6,7,7,8,8,9,9,10,10,11,11,12,12,13,13,14,14,15,15,16,16,17,17,18,18,19,19,20,20,21,21,22,22,23,23,24,24,25,25,26,26,27,27,28,28,29,29,30,30],"right_children":[2,4,6,8,10,12,14,16,18,20,22,24,26,28,30,32,34,36,38,40,42,44,46,48,50,52,54,56,58,60,62,-1,-1,-1,-1,-1,-1,-1,-1,-1,-1,-1,-1,-1,-1,-1,-1,-1,-1,-1,-1,-1,-1,-1,-1,-1,-1,-1,-1,-1,-1,-1,-1],"split_conditions":[1.7803252E-1,1.9241369E-1,6.829052E-2,-9.0241246E-2,-3.2421667E-2,-1.7615227E-1,6.784749E-2,-4.393431E-2,3.057932E-1,-1.7748244E-2,-1.7893688E-1,1.6688788E-2,1.0114569E-1,-8.8683024E-2,4.3329038E-2,1.7678548E-2,5.798015E-4,-9.561915E-3,9.6375965E-2,-2.9708313E-2,-8.763198E-2,1.6688788E-2,6.7078546E-2,-7.519969E-2,6.426361E-2,-6.170334E-2,-4.4183977E-2,-9.2261545E-2,7.561116E-2,-5.253154E-6,4.95455E-3,4.3336965E-2,-3.5929236E-1,8.221788E-2,-7.123556E-1,3.3483268E-3,1.4316316E-1,4.3551138E-1,-6.81277E-1,2.1417728E-1,-2.8599563E-1,1.5347299E-1,1.3798668E0,-1.5801667E0,6.743472E-1,-1.0653282E0,-1.04255565E-1,-6.860157E-2,8.354182E-1,-1.2165558E0,-2.6703222E-2,-2.1120775E-1,-8.7881845E-1,-3.616419E-1,3.394419E-1,5.299895E-2,-1.9883252E0,1.050078E0,1.0645382E-1,-1.7977333E-1,8.8100487E-1,-6.4047736E-1,-9.322791E-2],"split_indices":[1,10,6,2,6,0,0,9,8,0,4,7,10,11,5,6,1,6,6,3,1,7,5,7,7,8,7,5,13,10,3,0,0,0,0,0,0,0,0,0,0,0,0,0,0,0,0,0,0,0,0,0,0,0,0,0,0,0,0,0,0,0,0],"split_type":[0,0,0,0,0,0,0,0,0,0,0,0,0,0,0,0,0,0,0,0,0,0,0,0,0,0,0,0,0,0,0,0,0,0,0,0,0,0,0,0,0,0,0,0,0,0,0,0,0,0,0,0,0,0,0,0,0,0,0,0,0,0,0],"sum_hessian":[7.168075E7,6.185937E7,9.821387E6,5.4286844E7,7.572524E6,6.289379E6,3.532008E6,1.5841038E7,3.844581E7,3.705184E6,3.86734E6,2.695128E6,3.594251E6,1.029016E6,2.502992E6,7.311511E6,8.529527E6,3.761682E7,8.28985E5,3.081422E6,6.23762E5,6.65248E5,3.202092E6,2.050294E6,6.44834E5,2.827298E6,7.66953E5,2.03157E5,8.25859E5,5.82562E5,1.92043E6,3.322249E6,3.989262E6,7.943387E6,5.8614E5,1.7188596E7,2.0428224E7,2.22365E5,6.0662E5,1.409586E6,1.671836E6,2.8079E5,3.42972E5,3.8694E4,6.26554E5,1.234927E6,1.967165E6,1.669029E6,3.81265E5,1.72966E5,4.71868E5,1.718438E6,1.10886E6,3.1553E5,4.51423E5,1.93039E5,1.0118E4,6.51999E5,1.7386E5,3.60749E5,2.21813E5,2.17034E5,1.703396E6],"tree_param":{"num_deleted":"0","num_feature":"15","num_nodes":"63","size_leaf_vector":"0"}},{"base_weights":[1.9559606E-5,-2.2059985E-2,1.6597869E-1,-4.9023572E-2,2.4441648E-1,3.998215E-1,-8.20277E-1,-2.9159142E-2,-5.5682623E-1,-2.8248853E-3,1.449008E0,5.185689E-2,1.0982709E0,-1.8438222E-1,-1.5468603E0,3.8699795E-2,-1.6238527E-1,8.702456E-2,-1.3868726E0,7.39727E-1,-8.089209E-1,1.9410859E0,-4.2062858E-1,-3.6547014E-1,6.2009794E-1,1.7343799E0,4.0437755E-1,-5.193719E-1,9.839604E-1,-1.9306043E0,1.2808244E-1,-4.092354E-2,3.1418398E-1,7.3361784E-2,-3.9271685E-1,-1.8189862E-1,4.7034505E-1,-1.1364814E0,7.5093254E-2,4.455672E-1,-2.5959373E-1,-9.703986E-1,-1.5778321E-1,4.8646423E-1,1.7710977E0,-6.6474855E-1,2.6213697E-1,1.0407981E-1,-4.5998102E-1,-3.5772616E-1,6.547179E-1,-1.4347483E-1,1.1743721E0,3.775648E-1,-7.512392E-1,6.64969E-2,-6.283163E-1,9.5598006E-1,4.598102E-2,9.186665E-1,-1.0270175E0,-1.5241592E-1,3.501394E-1],"categories":[],"categories_nodes":[],"categories_segments":[],"categories_sizes":[],"default_left":[0,0,0,0,0,0,0,0,0,0,0,0,0,0,0,0,0,0,0,0,0,0,0,0,0,0,0,0,0,0,0,0,0,0,0,0,0,0,0,0,0,0,0,0,0,0,0,0,0,0,0,0,0,0,0,0,0,0,0,0,0,0,0],"id":20,"left_children":[1,3,5,7,9,11,13,15,17,19,21,23,25,27,29,31,33,35,37,39,41,43,45,47,49,51,53,55,57,59,61,-1,-1,-1,-1,-1,-1,-1,-1,-1,-1,-1,-1,-1,-1,-1,-1,-1,-1,-1,-1,-1,-1,-1,-1,-1,-1,-1,-1,-1,-1,-1,-1],"loss_changes":[2.626599E5,4.5456203E5,1.9411502E6,5.795183E5,1.7313139E6,1.6535228E6,7.4532425E5,4.9983594E5,1.1558455E6,2.8870335E6,9.1077425E5,1.0769135E6,9.986095E5,3.3669262E5,4.8391838E5,2.6037798E6,3.593283E6,4.6874925E5,1.286764E6,4.7853762E5,1.2914279E6,1.214829E6,1.7714034E5,8.3280775E5,1.7703302E6,1.4658018E6,7.237191E5,3.2155794E5,1.5867917E5,2.84887E5,3.476436E4,0E0,0E0,0E0,0E0,0E0,0E0,0E0,0E0,0E0,0E0,0E0,0E0,0E0,0E0,0E0,0E0,0E0,0E0,0E0,0E0,0E0,0E0,0E0,0E0,0E0,0E0,0E0,0E0,0E0,0E0,0E0,0E0],"parents":[2147483647,0,0,1,1,2,2,3,3,4,4,5,5,6,6,7,7,8,8,9,9,10,10,11,11,12,12,13,13,14,14,15,15,16,16,17,17,18,18,19,19,20,20,21,21,22,22,23,23,24,24,25,25,26,26,27,27,28,28,29,29,30,30],"right_children":[2,4,6,8,10,12,14,16,18,20,22,24,26,28,30,32,34,36,38,40,42,44,46,48,50,52,54,56,58,60,62,-1,-1,-1,-1,-1,-1,-1,-1,-1,-1,-1,-1,-1,-1,-1,-1,-1,-1,-1,-1,-1,-1,-1,-1,-1,-1,-1,-1,-1,-1,-1,-1],"split_conditions":[2.0197238E-1,2.2994447E-1,2.4711949E-1,2.2482276E-1,1.5445794E-1,-3.865119E-4,1.22135885E-1,4.3329038E-2,-1.1056767E-1,-2.9708313E-2,1.3240059E-1,0E0,1.6959618E-1,4.95455E-3,5.3590834E-1,9.58047E-2,3.7891686E-2,-9.306678E-2,3.434824E-2,6.004505E-1,-1.5865387E-2,-2.079735E-3,2.554474E-1,-1.6874035E-1,4.95455E-3,-6.5645254E-3,2.554474E-1,-1.9896208E-1,6.6599555E-2,1.8352754E-1,6.939847E-1,-4.092354E-2,3.1418398E-1,7.3361784E-2,-3.9271685E-1,-1.8189862E-1,4.7034505E-1,-1.1364814E0,7.5093254E-2,4.455672E-1,-2.5959373E-1,-9.703986E-1,-1.5778321E-1,4.8646423E-1,1.7710977E0,-6.6474855E-1,2.6213697E-1,1.0407981E-1,-4.5998102E-1,-3.5772616E-1,6.547179E-1,-1.4347483E-1,1.1743721E0,3.775648E-1,-7.512392E-1,6.64969E-2,-6.283163E-1,9.5598006E-1,4.598102E-2,9.186665E-1,-1.0270175E0,-1.5241592E-1,3.501394E-1],"split_indices":[0,9,8,10,4,9,4,5,7,3,13,1,7,3,0,3,7,0,2,10,1,6,3,10,3,7,3,3,4,7,0,0,0,0,0,0,0,0,0,0,0,0,0,0,0,0,0,0,0,0,0,0,0,0,0,0,0,0,0,0,0,0,0],"split_type":[0,0,0,0,0,0,0,0,0,0,0,0,0,0,0,0,0,0,0,0,0,0,0,0,0,0,0,0,0,0,0,0,0,0,0,0,0,0,0,0,0,0,0,0,0,0,0,0,0,0,0,0,0,0,0,0,0,0,0,0,0,0,0],"sum_hessian":[7.168075E7,6.3263984E7,8.41677E6,5.745079E7,5.813194E6,6.803621E6,1.613149E6,5.5288012E7,2.162778E6,4.823231E6,9.89963E5,4.54121E6,2.262411E6,8.60262E5,7.52887E5,3.6630308E7,1.8657704E7,1.218E6,9.44778E5,2.510569E6,2.312662E6,7.83698E5,2.06265E5,2.618289E6,1.922921E6,1.180352E6,1.082059E6,6.68569E5,1.91693E5,6.12547E5,1.4034E5,3.041294E7,6.217369E6,1.24707E7,6.187004E6,7.97068E5,4.20932E5,5.99294E5,3.45484E5,2.241043E6,2.69526E5,7.0203E5,1.610632E6,4.88384E5,2.95314E5,1.05137E5,1.01128E5,1.286936E6,1.331353E6,6.54625E5,1.268296E6,2.75133E5,9.05219E5,9.13946E5,1.68113E5,3.54707E5,3.13862E5,9.395E4,9.7743E4,1.9429E4,5.93118E5,7.9894E4,6.0446E4],"tree_param":{"num_deleted":"0","num_feature":"15","num_nodes":"63","size_leaf_vector":"0"}},{"base_weights":[9.9004155E-6,7.838423E-2,-7.504399E-2,2.5584042E-1,5.695238E-3,-3.567678E-1,-9.750229E-3,-6.75355E-2,1.33072E0,5.43632E-1,-8.850069E-2,-9.458233E-1,-1.4630996E-1,-3.660553E-1,8.57969E-2,-2.9689017E-1,8.4681714E-1,7.628916E-1,2.8106937E0,-6.668787E-1,8.881856E-1,-8.432321E-1,1.03981465E-1,-2.5476253E-1,-1.8747656E0,5.247996E-1,-8.046293E-1,-1.0710568E0,-1.6011389E-1,3.3564603E-1,-1.0954947E-1,2.4897529E-1,-2.1567348E-1,2.4514645E-1,6.6756165E-1,-3.752898E-1,4.9401447E-1,4.1313553E0,1.2340596E0,1.810827E0,-4.188608E-1,1.4784346E0,3.2923892E-1,-5.431972E-1,1.9980976E-1,-5.956995E-1,8.425468E-2,-5.004999E-1,1.7813308E-3,-1.3958955E0,-5.646527E-1,5.539767E-1,-4.3189508E-1,-4.994848E-1,5.2074516E-1,1.04853176E-1,-1.0641199E0,2.1653038E-2,-4.1324082E-1,-4.3243477E-1,1.9788495E-1,-1.5330096E-1,8.9289434E-2],"categories":[],"categories_nodes":[],"categories_segments":[],"categories_sizes":[],"default_left":[0,0,0,0,0,0,0,0,0,0,0,0,0,0,0,0,0,0,0,0,0,0,0,0,0,0,0,0,0,0,0,0,0,0,0,0,0,0,0,0,0,0,0,0,0,0,0,0,0,0,0,0,0,0,0,0,0,0,0,0,0,0,0],"id":21,"left_children":[1,3,5,7,9,11,13,15,17,19,21,23,25,27,29,31,33,35,37,39,41,43,45,47,49,51,53,55,57,59,61,-1,-1,-1,-1,-1,-1,-1,-1,-1,-1,-1,-1,-1,-1,-1,-1,-1,-1,-1,-1,-1,-1,-1,-1,-1,-1,-1,-1,-1,-1,-1,-1],"loss_changes":[4.2164756E5,4.5230394E5,6.735447E5,3.5417228E6,1.2604711E6,8.541076E5,1.0120057E6,1.6426375E6,1.9803362E6,1.5460348E6,3.0752152E6,1.1642214E6,2.2426015E6,9.126372E5,1.1440688E6,6.6924056E5,2.7345975E5,5.803057E5,1.2204E6,6.0174175E5,1.3711435E6,1.300023E6,1.4098796E6,2.0046928E5,5.28852E5,2.0354052E6,9.193341E5,1.9241378E6,6.5943356E5,7.424005E5,7.469024E5,0E0,0E0,0E0,0E0,0E0,0E0,0E0,0E0,0E0,0E0,0E0,0E0,0E0,0E0,0E0,0E0,0E0,0E0,0E0,0E0,0E0,0E0,0E0,0E0,0E0,0E0,0E0,0E0,0E0,0E0,0E0,0E0],"parents":[2147483647,0,0,1,1,2,2,3,3,4,4,5,5,6,6,7,7,8,8,9,9,10,10,11,11,12,12,13,13,14,14,15,15,16,16,17,17,18,18,19,19,20,20,21,21,22,22,23,23,24,24,25,25,26,26,27,27,28,28,29,29,30,30],"right_children":[2,4,6,8,10,12,14,16,18,20,22,24,26,28,30,32,34,36,38,40,42,44,46,48,50,52,54,56,58,60,62,-1,-1,-1,-1,-1,-1,-1,-1,-1,-1,-1,-1,-1,-1,-1,-1,-1,-1,-1,-1,-1,-1,-1,-1,-1,-1,-1,-1,-1,-1,-1,-1],"split_conditions":[1.3082867E-3,-8.787479E-2,4.95455E-3,-1.0484825E-1,-9.808105E-2,-6.574488E-2,5.798015E-4,2.0419644E-1,-4.546192E-2,-1.622469E-1,1.4143112E-3,-1.48528E-1,6.588548E-2,-3.2768033E-2,9.8445825E-2,-1.9626749E-1,-2.768626E-1,-1.622469E-1,-1.0092176E-1,-3.0107749E-1,-1.5632418E-1,3.7003618E-2,-1.7762668E-2,-2.4090117E-1,-1.0020478E-1,-4.5355674E-2,2.8728095E-1,2.6777394E-2,2.7221859E-1,-5.2238803E-2,5.0976384E-2,2.4897529E-1,-2.1567348E-1,2.4514645E-1,6.6756165E-1,-3.752898E-1,4.9401447E-1,4.1313553E0,1.2340596E0,1.810827E0,-4.188608E-1,1.4784346E0,3.2923892E-1,-5.431972E-1,1.9980976E-1,-5.956995E-1,8.425468E-2,-5.004999E-1,1.7813308E-3,-1.3958955E0,-5.646527E-1,5.539767E-1,-4.3189508E-1,-4.994848E-1,5.2074516E-1,1.04853176E-1,-1.0641199E0,2.1653038E-2,-4.1324082E-1,-4.3243477E-1,1.9788495E-1,-1.5330096E-1,8.9289434E-2],"split_indices":[2,5,3,3,6,7,1,8,6,9,12,0,8,5,1,10,3,9,8,3,3,4,11,8,10,4,10,8,4,4,8,0,0,0,0,0,0,0,0,0,0,0,0,0,0,0,0,0,0,0,0,0,0,0,0,0,0,0,0,0,0,0,0],"split_type":[0,0,0,0,0,0,0,0,0,0,0,0,0,0,0,0,0,0,0,0,0,0,0,0,0,0,0,0,0,0,0,0,0,0,0,0,0,0,0,0,0,0,0,0,0,0,0,0,0,0,0,0,0,0,0,0,0,0,0,0,0,0,0],"sum_hessian":[7.168075E7,3.5064736E7,3.661602E7,1.0189362E7,2.4875372E7,6.889557E6,2.9726464E7,7.832859E6,2.356503E6,3.706751E6,2.116862E7,1.813554E6,5.076003E6,6.285856E6,2.3440608E7,6.262088E6,1.570771E6,1.703077E6,6.53426E5,8.213E5,2.885451E6,4.30165E6,1.6866972E7,1.039929E6,7.73625E5,2.513584E6,2.562419E6,1.421074E6,4.864782E6,1.0285453E7,1.3155155E7,9.06039E5,5.356049E6,9.07896E5,6.62875E5,2.20536E5,1.482541E6,3.8629E4,6.14797E5,3.1464E4,7.89836E5,2.88379E5,2.597072E6,3.597754E6,7.03896E5,8.0034E5,1.6066631E7,2.67419E5,7.7251E5,3.46893E5,4.26732E5,1.770178E6,7.43406E5,2.318366E6,2.44053E5,6.42588E5,7.78486E5,3.727041E6,1.137741E6,4.90545E5,9.794908E6,7.81229E6,5.342865E6],"tree_param":{"num_deleted":"0","num_feature":"15","num_nodes":"63","size_leaf_vector":"0"}},{"base_weights":[4.9976966E-6,3.6589004E-2,-1.2226349E-1,-4.7879395E-1,5.391077E-2,-6.276746E-1,-6.175607E-2,8.478983E-1,-8.404782E-1,-2.900737E-3,2.1509995E-1,-1.2781383E0,7.786624E-1,3.2179326E-1,-2.0392497E-1,-5.601154E-1,1.2362309E0,-1.8587371E0,-1.9944155E-1,-3.068239E-2,1.3852699E0,1.2855895E0,1.4230086E-1,-5.5772465E-1,-1.9244229E0,2.9775455E0,-1.498251E-1,5.6781685E-1,-2.8719738E-1,-9.492572E-1,-4.461341E-2,-9.760155E-2,-1.4788064E0,1.1327391E0,2.9843175E-1,-2.559898E-2,-1.7267957E0,-5.06757E-1,7.0350077E-3,4.531642E-2,-2.1769375E-1,3.9925888E-1,1.8674067E0,4.3190665E0,4.4454938E-1,-2.5932816E-1,1.2643792E-1,4.755938E-1,-3.7633836E-1,-1.3473023E0,-4.0794542E-1,9.2155063E-1,2.2254152E0,3.2293263E-1,-4.2802957E-1,-5.9747696E-1,3.599873E-1,-1.8734158E0,-1.0641232E-1,1.1599349E-1,-7.9875773E-1,1.5415782E-1,-1.8345974E-1],"categories":[],"categories_nodes":[],"categories_segments":[],"categories_sizes":[],"default_left":[0,0,0,0,0,0,0,0,0,0,0,0,0,0,0,0,0,0,0,0,0,0,0,0,0,0,0,0,0,0,0,0,0,0,0,0,0,0,0,0,0,0,0,0,0,0,0,0,0,0,0,0,0,0,0,0,0,0,0,0,0,0,0],"id":22,"left_children":[1,3,5,7,9,11,13,15,17,19,21,23,25,27,29,31,33,35,37,39,41,43,45,47,49,51,53,55,57,59,61,-1,-1,-1,-1,-1,-1,-1,-1,-1,-1,-1,-1,-1,-1,-1,-1,-1,-1,-1,-1,-1,-1,-1,-1,-1,-1,-1,-1,-1,-1,-1,-1],"loss_changes":[3.2063312E5,4.925443E5,5.0483928E5,8.6085275E5,4.8880856E5,1.6146088E6,8.039269E5,2.101366E5,9.2017544E5,1.5221082E6,1.0840602E6,5.61897E5,1.139631E6,5.973512E5,1.2771918E6,7.268589E4,1.9823219E5,1.5699922E6,1.5036589E5,1.8997345E6,1.0675571E6,2.5821675E6,9.5192306E5,1.6787956E5,5.4312625E5,2.7697438E5,2.2054825E5,7.6167556E5,2.9518122E5,1.4504956E6,1.008062E6,0E0,0E0,0E0,0E0,0E0,0E0,0E0,0E0,0E0,0E0,0E0,0E0,0E0,0E0,0E0,0E0,0E0,0E0,0E0,0E0,0E0,0E0,0E0,0E0,0E0,0E0,0E0,0E0,0E0,0E0,0E0,0E0],"parents":[2147483647,0,0,1,1,2,2,3,3,4,4,5,5,6,6,7,7,8,8,9,9,10,10,11,11,12,12,13,13,14,14,15,15,16,16,17,17,18,18,19,19,20,20,21,21,22,22,23,23,24,24,25,25,26,26,27,27,28,28,29,29,30,30],"right_children":[2,4,6,8,10,12,14,16,18,20,22,24,26,28,30,32,34,36,38,40,42,44,46,48,50,52,54,56,58,60,62,-1,-1,-1,-1,-1,-1,-1,-1,-1,-1,-1,-1,-1,-1,-1,-1,-1,-1,-1,-1,-1,-1,-1,-1,-1,-1,-1,-1,-1,-1,-1,-1],"split_conditions":[1.15797445E-1,-3.5666564E-1,3.3565473E-2,-1.7732759E-1,6.784749E-2,2.6777394E-2,-1.2289971E-1,-1.4540243E-1,3.7891686E-2,8.486305E-2,1.7678548E-2,-2.4861328E-1,8.479865E-2,-5.2814815E-2,-1.5903501E-1,6.940826E-4,-2.1525429E-1,6.940826E-4,2.6777394E-2,0E0,1.0660353E-1,-1.3493706E-1,-8.0039045E-3,-2.2176987E-1,-6.388353E-2,1.9685967E-1,1.6987072E-1,-9.0241246E-2,-8.0039045E-3,5.4777972E-3,9.522419E-2,-9.760155E-2,-1.4788064E0,1.1327391E0,2.9843175E-1,-2.559898E-2,-1.7267957E0,-5.06757E-1,7.0350077E-3,4.531642E-2,-2.1769375E-1,3.9925888E-1,1.8674067E0,4.3190665E0,4.4454938E-1,-2.5932816E-1,1.2643792E-1,4.755938E-1,-3.7633836E-1,-1.3473023E0,-4.0794542E-1,9.2155063E-1,2.2254152E0,3.2293263E-1,-4.2802957E-1,-5.9747696E-1,3.599873E-1,-1.8734158E0,-1.0641232E-1,1.1599349E-1,-7.9875773E-1,1.5415782E-1,-1.8345974E-1],"split_indices":[4,1,3,8,0,8,9,11,7,5,6,1,7,7,6,5,7,5,8,5,9,4,5,3,7,5,8,2,5,9,2,0,0,0,0,0,0,0,0,0,0,0,0,0,0,0,0,0,0,0,0,0,0,0,0,0,0,0,0,0,0,0,0],"split_type":[0,0,0,0,0,0,0,0,0,0,0,0,0,0,0,0,0,0,0,0,0,0,0,0,0,0,0,0,0,0,0,0,0,0,0,0,0,0,0,0,0,0,0,0,0,0,0,0,0,0,0,0,0,0,0,0,0,0,0,0,0,0,0],"sum_hessian":[7.168075E7,5.517255E7,1.6508202E7,1.794025E6,5.337853E7,1.765039E6,1.4743163E7,3.84316E5,1.409709E6,3.9467956E7,1.3910573E7,1.206845E6,5.58194E5,3.986963E6,1.07562E7,8.3081E4,3.01235E5,5.44613E5,8.65096E5,3.8693576E7,7.74379E5,8.85757E5,1.3024816E7,5.70694E5,6.36151E5,1.65722E5,3.92472E5,2.839746E6,1.147217E6,1.894211E6,8.861989E6,7.2107E4,1.0974E4,1.15424E5,1.85811E5,2.55285E5,2.89328E5,1.79749E5,6.85347E5,2.976974E7,8.923837E6,6.19638E5,1.54741E5,4.532E4,8.40437E5,1.866699E6,1.1158117E7,6.5297E4,5.05397E5,3.75359E5,2.60792E5,9.3629E4,7.2093E4,1.84548E5,2.07924E5,2.25642E5,2.614104E6,2.4142E4,1.123075E6,6.71187E5,1.223024E6,4.230042E6,4.631947E6],"tree_param":{"num_deleted":"0","num_feature":"15","num_nodes":"63","size_leaf_vector":"0"}},{"base_weights":[2.4626768E-6,5.6129806E-2,-8.35167E-2,-1.3706288E-2,5.5211985E-1,1.2337296E-1,-2.2195137E-1,-1.5150422E-1,3.0652848E-1,2.219931E-1,1.6481285E0,-8.221401E-2,9.428404E-1,-1.1790862E0,-9.420063E-2,-6.0185306E-2,-7.4720854E-1,6.2817496E-1,-2.2646104E-1,6.1932564E-1,-3.555848E-1,2.1454506E0,-1.2526679E0,6.5796894E-1,-2.3631915E-1,1.5544151E0,-1.1810218E0,-1.5735486E0,1.6943797E0,5.5853516E-2,-5.295292E-1,-3.6586072E-2,1.8021151E0,-1.604077E0,-2.7413934E-1,6.704834E-2,8.553979E-1,6.275594E-1,-2.6444647E-1,-7.070025E-2,6.1109495E-1,1.063341E-1,-5.480796E-1,1.4624786E0,-7.437034E-1,-1.9367965E0,4.3887886E-1,-8.3344233E-1,4.9672404E-1,1.7406748E-1,-2.773996E-1,1.071644E0,4.7646555E-1,-1.1781894E0,5.8573854E-1,-1.65807E-1,-9.426415E-1,-4.7976595E-1,1.5280943E0,-1.4041968E-1,3.2616642E-1,1.0098944E0,-2.8480905E-1],"categories":[],"categories_nodes":[],"categories_segments":[],"categories_sizes":[],"default_left":[0,0,0,0,0,0,0,0,0,0,0,0,0,0,0,0,0,0,0,0,0,0,0,0,0,0,0,0,0,0,0,0,0,0,0,0,0,0,0,0,0,0,0,0,0,0,0,0,0,0,0,0,0,0,0,0,0,0,0,0,0,0,0],"id":23,"left_children":[1,3,5,7,9,11,13,15,17,19,21,23,25,27,29,31,33,35,37,39,41,43,45,47,49,51,53,55,57,59,61,-1,-1,-1,-1,-1,-1,-1,-1,-1,-1,-1,-1,-1,-1,-1,-1,-1,-1,-1,-1,-1,-1,-1,-1,-1,-1,-1,-1,-1,-1,-1,-1],"loss_changes":[3.360185E5,1.484949E6,8.2514575E5,1.6582874E6,1.9144774E6,1.9457722E6,2.1105475E6,1.4292629E6,1.9381721E6,9.331979E5,1.7669775E6,1.0531878E6,3.0087738E6,2.3038288E6,9.94748E5,1.0841468E6,1.7096668E6,3.7714165E6,1.9065372E6,1.1048488E6,6.974435E5,2.9608975E6,1.00091825E6,1.2409406E6,1.4224725E6,6.37026E5,1.4319794E6,6.91918E5,8.866984E5,2.2743355E6,3.98938E5,0E0,0E0,0E0,0E0,0E0,0E0,0E0,0E0,0E0,0E0,0E0,0E0,0E0,0E0,0E0,0E0,0E0,0E0,0E0,0E0,0E0,0E0,0E0,0E0,0E0,0E0,0E0,0E0,0E0,0E0,0E0,0E0],"parents":[2147483647,0,0,1,1,2,2,3,3,4,4,5,5,6,6,7,7,8,8,9,9,10,10,11,11,12,12,13,13,14,14,15,15,16,16,17,17,18,18,19,19,20,20,21,21,22,22,23,23,24,24,25,25,26,26,27,27,28,28,29,29,30,30],"right_children":[2,4,6,8,10,12,14,16,18,20,22,24,26,28,30,32,34,36,38,40,42,44,46,48,50,52,54,56,58,60,62,-1,-1,-1,-1,-1,-1,-1,-1,-1,-1,-1,-1,-1,-1,-1,-1,-1,-1,-1,-1,-1,-1,-1,-1,-1,-1,-1,-1,-1,-1,-1,-1],"split_conditions":[4.3329038E-2,5.592739E-2,3.4646235E-2,5.021834E-2,4.6509165E-2,2.6777394E-2,8.385221E-2,0E0,6.609508E-2,6.306032E-3,2.3038486E-1,5.743302E-2,1.5886284E-1,2.1821475E-1,1.4129318E-1,5.2557778E-2,-2.1612476E-1,-2.9708313E-2,-1.6591093E-1,-2.1397372E-1,4.9724728E-2,2.6904207E-1,3.089665E-2,-2.9119003E-1,-8.071116E-2,2.823894E-2,2.0969826E-1,2.803792E-2,1.2659481E-1,-3.865119E-4,6.526791E-2,-3.6586072E-2,1.8021151E0,-1.604077E0,-2.7413934E-1,6.704834E-2,8.553979E-1,6.275594E-1,-2.6444647E-1,-7.070025E-2,6.1109495E-1,1.063341E-1,-5.480796E-1,1.4624786E0,-7.437034E-1,-1.9367965E0,4.3887886E-1,-8.3344233E-1,4.9672404E-1,1.7406748E-1,-2.773996E-1,1.071644E0,4.7646555E-1,-1.1781894E0,5.8573854E-1,-1.65807E-1,-9.426415E-1,-4.7976595E-1,1.5280943E0,-1.4041968E-1,3.2616642E-1,1.0098944E0,-2.8480905E-1],"split_indices":[5,4,6,6,7,8,0,5,9,5,10,4,2,8,8,0,1,3,1,0,1,1,1,1,10,14,10,7,4,9,6,0,0,0,0,0,0,0,0,0,0,0,0,0,0,0,0,0,0,0,0,0,0,0,0,0,0,0,0,0,0,0,0],"split_type":[0,0,0,0,0,0,0,0,0,0,0,0,0,0,0,0,0,0,0,0,0,0,0,0,0,0,0,0,0,0,0,0,0,0,0,0,0,0,0,0,0,0,0,0,0,0,0,0,0,0,0,0,0,0,0,0,0,0,0,0,0,0,0],"sum_hessian":[7.168075E7,4.2870508E7,2.8810246E7,3.7579292E7,5.291216E6,1.1549539E7,1.7260708E7,2.6273662E7,1.1305631E7,4.066388E6,1.224828E6,9.233141E6,2.316398E6,2.032534E6,1.5228173E7,2.2781376E7,3.492286E6,7.050701E6,4.25493E6,2.409099E6,1.657289E6,1.045572E6,1.79256E5,1.591069E6,7.642072E6,1.79851E6,5.17888E5,1.787193E6,2.45341E5,1.1324658E7,3.903515E6,2.2700924E7,8.0452E4,2.61184E5,3.231102E6,4.841277E6,2.209424E6,7.2131E5,3.53362E6,1.0651E6,1.343999E6,9.37745E5,7.19544E5,8.60857E5,1.84715E5,8.0375E4,9.8881E4,2.0064E5,1.390429E6,2.695487E6,4.946585E6,9.08781E5,8.89729E5,3.45346E5,1.72542E5,3.5859E5,1.428603E6,8.32E4,1.62141E5,7.238669E6,4.085989E6,6.0433E4,3.843082E6],"tree_param":{"num_deleted":"0","num_feature":"15","num_nodes":"63","size_leaf_vector":"0"}},{"base_weights":[1.3563338E-6,-1.0361013E-2,4.2553294E-1,5.532308E-2,-8.403401E-2,1.6402546E0,3.8749737E-1,-2.8024425E-3,2.6256955E-1,-7.175281E-1,-3.3617534E-2,3.4124658E0,1.3714119E0,-5.226682E-1,4.8475236E-1,1.420264E-1,-2.105735E-1,-3.4175062E-1,4.9958715E-1,-1.4566821E0,-1.3986431E-1,3.0743104E-1,-1.7699681E-1,3.203233E0,1.0075257E1,1.7768396E0,4.662041E-1,-1.1479317E0,4.6799433E-1,1.0160941E0,3.3672455E-1,1.13971226E-1,-1.4808142E-1,-1.7094426E-1,2.6876414E-1,-3.708571E-1,3.997367E-1,3.7093356E-1,-2.1797945E-1,-1.2197015E-1,-1.1060855E0,1.2689096E-1,-3.13276E-1,2.9628057E-2,8.158856E-1,4.4080958E-2,-1.9813831E-1,2.6778514E0,1.4976194E0,5.7783356E0,2.9870253E0,5.8674264E-1,1.1688043E0,3.4526616E-1,-5.341486E-1,-1.3749671E-1,-9.8540026E-1,-2.624391E-1,3.6714652E-1,4.7666274E-2,6.330426E-1,7.920737E-2,3.270566E-1],"categories":[],"categories_nodes":[],"categories_segments":[],"categories_sizes":[],"default_left":[0,0,0,0,0,0,0,0,0,0,0,0,0,0,0,0,0,0,0,0,0,0,0,0,0,0,0,0,0,0,0,0,0,0,0,0,0,0,0,0,0,0,0,0,0,0,0,0,0,0,0,0,0,0,0,0,0,0,0,0,0,0,0],"id":24,"left_children":[1,3,5,7,9,11,13,15,17,19,21,23,25,27,29,31,33,35,37,39,41,43,45,47,49,51,53,55,57,59,61,-1,-1,-1,-1,-1,-1,-1,-1,-1,-1,-1,-1,-1,-1,-1,-1,-1,-1,-1,-1,-1,-1,-1,-1,-1,-1,-1,-1,-1,-1,-1,-1],"loss_changes":[3.160774E5,3.386274E5,7.873066E4,4.4564266E5,1.0534156E6,2.4645219E4,1.4625947E5,8.6937075E5,1.1606262E6,1.0381684E6,1.4939312E6,9.466953E3,1.6486117E4,9.880628E4,1.1741316E5,6.4092E5,1.1657705E6,1.041949E6,1.3192409E6,9.77245E5,2.6147134E5,2.9719582E6,1.2506035E6,2.9423672E3,